digraph Tree {
node [shape=box, style="filled, rounded", color="black", fontname=helvetica] ;
edge [fontname=helvetica] ;
0 [label="AVG_DOWNHOLE_TEMPERATURE <= 0.92\nmse = 0.04\nsamples = 1655\nvalue = 0.2", fillcolor="#e5813934"] ;
1 [label="AVG_DOWNHOLE_PRESSURE <= 0.79\nmse = 0.0\nsamples = 983\nvalue = 0.08", fillcolor="#e5813913"] ;
0 -> 1 [labeldistance=2.5, labelangle=45, headlabel="True"] ;
2 [label="AVG_DP_TUBING <= 0.76\nmse = 0.0\nsamples = 322\nvalue = 0.16", fillcolor="#e5813928"] ;
1 -> 2 ;
3 [label="AVG_DOWNHOLE_TEMPERATURE <= 0.43\nmse = 0.0\nsamples = 126\nvalue = 0.19", fillcolor="#e5813930"] ;
2 -> 3 ;
4 [label="AVG_CHOKE_SIZE_P <= 0.85\nmse = 0.0\nsamples = 4\nvalue = 0.06", fillcolor="#e581390e"] ;
3 -> 4 ;
5 [label="AVG_DOWNHOLE_TEMPERATURE <= 0.29\nmse = 0.0\nsamples = 3\nvalue = 0.04", fillcolor="#e581390a"] ;
4 -> 5 ;
6 [label="AVG_CHOKE_SIZE_P <= 0.54\nmse = 0.0\nsamples = 2\nvalue = 0.02", fillcolor="#e5813906"] ;
5 -> 6 ;
7 [label="mse = 0.0\nsamples = 1\nvalue = 0.02", fillcolor="#e5813904"] ;
6 -> 7 ;
8 [label="mse = 0.0\nsamples = 1\nvalue = 0.03", fillcolor="#e5813909"] ;
6 -> 8 ;
9 [label="mse = 0.0\nsamples = 1\nvalue = 0.07", fillcolor="#e5813912"] ;
5 -> 9 ;
10 [label="mse = -0.0\nsamples = 1\nvalue = 0.1", fillcolor="#e581391a"] ;
4 -> 10 ;
11 [label="AVG_DP_TUBING <= 0.62\nmse = 0.0\nsamples = 122\nvalue = 0.19", fillcolor="#e5813931"] ;
3 -> 11 ;
12 [label="AVG_DP_TUBING <= 0.3\nmse = 0.0\nsamples = 14\nvalue = 0.26", fillcolor="#e5813941"] ;
11 -> 12 ;
13 [label="mse = 0.0\nsamples = 1\nvalue = 0.44", fillcolor="#e581396f"] ;
12 -> 13 ;
14 [label="DP_CHOKE_SIZE <= 0.03\nmse = 0.0\nsamples = 13\nvalue = 0.24", fillcolor="#e581393e"] ;
12 -> 14 ;
15 [label="DP_CHOKE_SIZE <= 0.03\nmse = 0.0\nsamples = 2\nvalue = 0.17", fillcolor="#e581392a"] ;
14 -> 15 ;
16 [label="mse = 0.0\nsamples = 1\nvalue = 0.14", fillcolor="#e5813922"] ;
15 -> 16 ;
17 [label="mse = -0.0\nsamples = 1\nvalue = 0.2", fillcolor="#e5813933"] ;
15 -> 17 ;
18 [label="AVG_DOWNHOLE_PRESSURE <= 0.61\nmse = 0.0\nsamples = 11\nvalue = 0.26", fillcolor="#e5813941"] ;
14 -> 18 ;
19 [label="AVG_DOWNHOLE_PRESSURE <= 0.55\nmse = 0.0\nsamples = 10\nvalue = 0.25", fillcolor="#e581393f"] ;
18 -> 19 ;
20 [label="mse = 0.0\nsamples = 1\nvalue = 0.21", fillcolor="#e5813934"] ;
19 -> 20 ;
21 [label="AVG_DOWNHOLE_TEMPERATURE <= 0.92\nmse = 0.0\nsamples = 9\nvalue = 0.25", fillcolor="#e5813941"] ;
19 -> 21 ;
22 [label="DP_CHOKE_SIZE <= 0.04\nmse = 0.0\nsamples = 3\nvalue = 0.24", fillcolor="#e581393d"] ;
21 -> 22 ;
23 [label="mse = 0.0\nsamples = 1\nvalue = 0.24", fillcolor="#e581393c"] ;
22 -> 23 ;
24 [label="AVG_DOWNHOLE_PRESSURE <= 0.58\nmse = 0.0\nsamples = 2\nvalue = 0.24", fillcolor="#e581393e"] ;
22 -> 24 ;
25 [label="mse = 0.0\nsamples = 1\nvalue = 0.24", fillcolor="#e581393e"] ;
24 -> 25 ;
26 [label="mse = 0.0\nsamples = 1\nvalue = 0.24", fillcolor="#e581393d"] ;
24 -> 26 ;
27 [label="AVG_WHP_P <= 0.08\nmse = 0.0\nsamples = 6\nvalue = 0.26", fillcolor="#e5813942"] ;
21 -> 27 ;
28 [label="AVG_DP_TUBING <= 0.61\nmse = 0.0\nsamples = 5\nvalue = 0.26", fillcolor="#e5813943"] ;
27 -> 28 ;
29 [label="AVG_DOWNHOLE_PRESSURE <= 0.58\nmse = 0.0\nsamples = 4\nvalue = 0.27", fillcolor="#e5813944"] ;
28 -> 29 ;
30 [label="AVG_WHP_P <= 0.08\nmse = 0.0\nsamples = 3\nvalue = 0.27", fillcolor="#e5813944"] ;
29 -> 30 ;
31 [label="AVG_DOWNHOLE_TEMPERATURE <= 0.92\nmse = 0.0\nsamples = 2\nvalue = 0.27", fillcolor="#e5813944"] ;
30 -> 31 ;
32 [label="mse = 0.0\nsamples = 1\nvalue = 0.27", fillcolor="#e5813944"] ;
31 -> 32 ;
33 [label="mse = 0.0\nsamples = 1\nvalue = 0.27", fillcolor="#e5813944"] ;
31 -> 33 ;
34 [label="mse = -0.0\nsamples = 1\nvalue = 0.27", fillcolor="#e5813945"] ;
30 -> 34 ;
35 [label="mse = 0.0\nsamples = 1\nvalue = 0.26", fillcolor="#e5813943"] ;
29 -> 35 ;
36 [label="mse = 0.0\nsamples = 1\nvalue = 0.25", fillcolor="#e5813941"] ;
28 -> 36 ;
37 [label="mse = -0.0\nsamples = 1\nvalue = 0.24", fillcolor="#e581393c"] ;
27 -> 37 ;
38 [label="mse = -0.0\nsamples = 1\nvalue = 0.33", fillcolor="#e5813955"] ;
18 -> 38 ;
39 [label="AVG_DOWNHOLE_TEMPERATURE <= 0.92\nmse = 0.0\nsamples = 108\nvalue = 0.19", fillcolor="#e581392f"] ;
11 -> 39 ;
40 [label="DP_CHOKE_SIZE <= 0.07\nmse = 0.0\nsamples = 98\nvalue = 0.18", fillcolor="#e581392e"] ;
39 -> 40 ;
41 [label="AVG_DOWNHOLE_PRESSURE <= 0.6\nmse = 0.0\nsamples = 66\nvalue = 0.17", fillcolor="#e581392c"] ;
40 -> 41 ;
42 [label="mse = 0.0\nsamples = 1\nvalue = 0.26", fillcolor="#e5813942"] ;
41 -> 42 ;
43 [label="AVG_DOWNHOLE_TEMPERATURE <= 0.81\nmse = 0.0\nsamples = 65\nvalue = 0.17", fillcolor="#e581392c"] ;
41 -> 43 ;
44 [label="mse = 0.0\nsamples = 1\nvalue = 0.1", fillcolor="#e5813919"] ;
43 -> 44 ;
45 [label="AVG_DP_TUBING <= 0.68\nmse = 0.0\nsamples = 64\nvalue = 0.17", fillcolor="#e581392c"] ;
43 -> 45 ;
46 [label="AVG_DOWNHOLE_TEMPERATURE <= 0.92\nmse = 0.0\nsamples = 19\nvalue = 0.18", fillcolor="#e581392e"] ;
45 -> 46 ;
47 [label="DP_CHOKE_SIZE <= 0.02\nmse = 0.0\nsamples = 16\nvalue = 0.18", fillcolor="#e581392f"] ;
46 -> 47 ;
48 [label="AVG_DOWNHOLE_TEMPERATURE <= 0.92\nmse = 0.0\nsamples = 7\nvalue = 0.18", fillcolor="#e581392e"] ;
47 -> 48 ;
49 [label="AVG_DOWNHOLE_TEMPERATURE <= 0.92\nmse = 0.0\nsamples = 4\nvalue = 0.18", fillcolor="#e581392e"] ;
48 -> 49 ;
50 [label="mse = 0.0\nsamples = 1\nvalue = 0.18", fillcolor="#e581392e"] ;
49 -> 50 ;
51 [label="DP_CHOKE_SIZE <= 0.02\nmse = 0.0\nsamples = 3\nvalue = 0.18", fillcolor="#e581392e"] ;
49 -> 51 ;
52 [label="mse = 0.0\nsamples = 1\nvalue = 0.18", fillcolor="#e581392e"] ;
51 -> 52 ;
53 [label="mse = 0.0\nsamples = 2\nvalue = 0.18", fillcolor="#e581392e"] ;
51 -> 53 ;
54 [label="DP_CHOKE_SIZE <= 0.02\nmse = 0.0\nsamples = 3\nvalue = 0.18", fillcolor="#e581392e"] ;
48 -> 54 ;
55 [label="mse = 0.0\nsamples = 1\nvalue = 0.18", fillcolor="#e581392e"] ;
54 -> 55 ;
56 [label="AVG_WHP_P <= 0.06\nmse = 0.0\nsamples = 2\nvalue = 0.18", fillcolor="#e581392f"] ;
54 -> 56 ;
57 [label="mse = 0.0\nsamples = 1\nvalue = 0.18", fillcolor="#e581392f"] ;
56 -> 57 ;
58 [label="mse = 0.0\nsamples = 1\nvalue = 0.18", fillcolor="#e581392e"] ;
56 -> 58 ;
59 [label="AVG_WHP_P <= 0.06\nmse = 0.0\nsamples = 9\nvalue = 0.18", fillcolor="#e581392f"] ;
47 -> 59 ;
60 [label="mse = 0.0\nsamples = 2\nvalue = 0.18", fillcolor="#e581392f"] ;
59 -> 60 ;
61 [label="AVG_DP_TUBING <= 0.67\nmse = 0.0\nsamples = 7\nvalue = 0.18", fillcolor="#e581392f"] ;
59 -> 61 ;
62 [label="mse = 0.0\nsamples = 1\nvalue = 0.18", fillcolor="#e581392f"] ;
61 -> 62 ;
63 [label="AVG_WHP_P <= 0.06\nmse = 0.0\nsamples = 6\nvalue = 0.18", fillcolor="#e581392f"] ;
61 -> 63 ;
64 [label="mse = 0.0\nsamples = 4\nvalue = 0.18", fillcolor="#e581392f"] ;
63 -> 64 ;
65 [label="AVG_DOWNHOLE_PRESSURE <= 0.63\nmse = 0.0\nsamples = 2\nvalue = 0.19", fillcolor="#e581392f"] ;
63 -> 65 ;
66 [label="mse = 0.0\nsamples = 1\nvalue = 0.19", fillcolor="#e581392f"] ;
65 -> 66 ;
67 [label="mse = -0.0\nsamples = 1\nvalue = 0.19", fillcolor="#e581392f"] ;
65 -> 67 ;
68 [label="DP_CHOKE_SIZE <= 0.02\nmse = 0.0\nsamples = 3\nvalue = 0.18", fillcolor="#e581392d"] ;
46 -> 68 ;
69 [label="AVG_DOWNHOLE_PRESSURE <= 0.64\nmse = 0.0\nsamples = 2\nvalue = 0.18", fillcolor="#e581392e"] ;
68 -> 69 ;
70 [label="mse = 0.0\nsamples = 1\nvalue = 0.18", fillcolor="#e581392d"] ;
69 -> 70 ;
71 [label="mse = -0.0\nsamples = 1\nvalue = 0.18", fillcolor="#e581392e"] ;
69 -> 71 ;
72 [label="mse = 0.0\nsamples = 1\nvalue = 0.17", fillcolor="#e581392c"] ;
68 -> 72 ;
73 [label="AVG_DOWNHOLE_TEMPERATURE <= 0.92\nmse = 0.0\nsamples = 45\nvalue = 0.17", fillcolor="#e581392c"] ;
45 -> 73 ;
74 [label="AVG_WHP_P <= 0.06\nmse = 0.0\nsamples = 44\nvalue = 0.17", fillcolor="#e581392c"] ;
73 -> 74 ;
75 [label="AVG_DOWNHOLE_TEMPERATURE <= 0.91\nmse = 0.0\nsamples = 35\nvalue = 0.17", fillcolor="#e581392c"] ;
74 -> 75 ;
76 [label="AVG_DOWNHOLE_PRESSURE <= 0.65\nmse = 0.0\nsamples = 20\nvalue = 0.17", fillcolor="#e581392c"] ;
75 -> 76 ;
77 [label="DP_CHOKE_SIZE <= 0.02\nmse = 0.0\nsamples = 13\nvalue = 0.17", fillcolor="#e581392c"] ;
76 -> 77 ;
78 [label="AVG_WHP_P <= 0.06\nmse = 0.0\nsamples = 4\nvalue = 0.17", fillcolor="#e581392c"] ;
77 -> 78 ;
79 [label="AVG_DP_TUBING <= 0.69\nmse = 0.0\nsamples = 2\nvalue = 0.17", fillcolor="#e581392c"] ;
78 -> 79 ;
80 [label="mse = 0.0\nsamples = 1\nvalue = 0.17", fillcolor="#e581392c"] ;
79 -> 80 ;
81 [label="mse = -0.0\nsamples = 1\nvalue = 0.17", fillcolor="#e581392c"] ;
79 -> 81 ;
82 [label="mse = 0.0\nsamples = 2\nvalue = 0.17", fillcolor="#e581392b"] ;
78 -> 82 ;
83 [label="AVG_DOWNHOLE_TEMPERATURE <= 0.91\nmse = 0.0\nsamples = 9\nvalue = 0.17", fillcolor="#e581392c"] ;
77 -> 83 ;
84 [label="mse = 0.0\nsamples = 7\nvalue = 0.17", fillcolor="#e581392c"] ;
83 -> 84 ;
85 [label="mse = 0.0\nsamples = 2\nvalue = 0.17", fillcolor="#e581392c"] ;
83 -> 85 ;
86 [label="AVG_DOWNHOLE_PRESSURE <= 0.65\nmse = 0.0\nsamples = 7\nvalue = 0.17", fillcolor="#e581392b"] ;
76 -> 86 ;
87 [label="AVG_DP_TUBING <= 0.7\nmse = 0.0\nsamples = 6\nvalue = 0.17", fillcolor="#e581392b"] ;
86 -> 87 ;
88 [label="mse = 0.0\nsamples = 2\nvalue = 0.17", fillcolor="#e581392b"] ;
87 -> 88 ;
89 [label="mse = 0.0\nsamples = 4\nvalue = 0.17", fillcolor="#e581392b"] ;
87 -> 89 ;
90 [label="mse = 0.0\nsamples = 1\nvalue = 0.17", fillcolor="#e581392b"] ;
86 -> 90 ;
91 [label="AVG_DOWNHOLE_TEMPERATURE <= 0.91\nmse = 0.0\nsamples = 15\nvalue = 0.18", fillcolor="#e581392d"] ;
75 -> 91 ;
92 [label="AVG_DOWNHOLE_TEMPERATURE <= 0.91\nmse = 0.0\nsamples = 10\nvalue = 0.18", fillcolor="#e581392d"] ;
91 -> 92 ;
93 [label="mse = 0.0\nsamples = 5\nvalue = 0.18", fillcolor="#e581392d"] ;
92 -> 93 ;
94 [label="AVG_WHP_P <= 0.06\nmse = 0.0\nsamples = 5\nvalue = 0.18", fillcolor="#e581392d"] ;
92 -> 94 ;
95 [label="DP_CHOKE_SIZE <= 0.02\nmse = 0.0\nsamples = 3\nvalue = 0.18", fillcolor="#e581392e"] ;
94 -> 95 ;
96 [label="mse = 0.0\nsamples = 2\nvalue = 0.18", fillcolor="#e581392d"] ;
95 -> 96 ;
97 [label="mse = 0.0\nsamples = 1\nvalue = 0.18", fillcolor="#e581392e"] ;
95 -> 97 ;
98 [label="AVG_WHP_P <= 0.06\nmse = 0.0\nsamples = 2\nvalue = 0.18", fillcolor="#e581392d"] ;
94 -> 98 ;
99 [label="mse = 0.0\nsamples = 1\nvalue = 0.18", fillcolor="#e581392d"] ;
98 -> 99 ;
100 [label="mse = 0.0\nsamples = 1\nvalue = 0.18", fillcolor="#e581392d"] ;
98 -> 100 ;
101 [label="AVG_DOWNHOLE_TEMPERATURE <= 0.91\nmse = 0.0\nsamples = 5\nvalue = 0.17", fillcolor="#e581392c"] ;
91 -> 101 ;
102 [label="AVG_DOWNHOLE_PRESSURE <= 0.64\nmse = 0.0\nsamples = 2\nvalue = 0.17", fillcolor="#e581392a"] ;
101 -> 102 ;
103 [label="mse = 0.0\nsamples = 1\nvalue = 0.17", fillcolor="#e581392a"] ;
102 -> 103 ;
104 [label="mse = -0.0\nsamples = 1\nvalue = 0.17", fillcolor="#e581392a"] ;
102 -> 104 ;
105 [label="AVG_DP_TUBING <= 0.68\nmse = 0.0\nsamples = 3\nvalue = 0.18", fillcolor="#e581392d"] ;
101 -> 105 ;
106 [label="mse = 0.0\nsamples = 1\nvalue = 0.17", fillcolor="#e581392c"] ;
105 -> 106 ;
107 [label="mse = 0.0\nsamples = 2\nvalue = 0.18", fillcolor="#e581392d"] ;
105 -> 107 ;
108 [label="AVG_WHP_P <= 0.09\nmse = 0.0\nsamples = 9\nvalue = 0.17", fillcolor="#e581392a"] ;
74 -> 108 ;
109 [label="AVG_DOWNHOLE_TEMPERATURE <= 0.9\nmse = 0.0\nsamples = 4\nvalue = 0.16", fillcolor="#e5813929"] ;
108 -> 109 ;
110 [label="mse = 0.0\nsamples = 1\nvalue = 0.17", fillcolor="#e581392b"] ;
109 -> 110 ;
111 [label="AVG_DP_TUBING <= 0.69\nmse = 0.0\nsamples = 3\nvalue = 0.16", fillcolor="#e5813928"] ;
109 -> 111 ;
112 [label="mse = 0.0\nsamples = 1\nvalue = 0.15", fillcolor="#e5813927"] ;
111 -> 112 ;
113 [label="AVG_CHOKE_SIZE_P <= 0.79\nmse = 0.0\nsamples = 2\nvalue = 0.16", fillcolor="#e5813928"] ;
111 -> 113 ;
114 [label="mse = 0.0\nsamples = 1\nvalue = 0.16", fillcolor="#e5813928"] ;
113 -> 114 ;
115 [label="mse = 0.0\nsamples = 1\nvalue = 0.16", fillcolor="#e5813929"] ;
113 -> 115 ;
116 [label="AVG_DP_TUBING <= 0.76\nmse = 0.0\nsamples = 5\nvalue = 0.17", fillcolor="#e581392c"] ;
108 -> 116 ;
117 [label="DP_CHOKE_SIZE <= 0.07\nmse = 0.0\nsamples = 4\nvalue = 0.17", fillcolor="#e581392c"] ;
116 -> 117 ;
118 [label="mse = 0.0\nsamples = 3\nvalue = 0.17", fillcolor="#e581392c"] ;
117 -> 118 ;
119 [label="mse = 0.0\nsamples = 1\nvalue = 0.17", fillcolor="#e581392c"] ;
117 -> 119 ;
120 [label="mse = 0.0\nsamples = 1\nvalue = 0.17", fillcolor="#e581392b"] ;
116 -> 120 ;
121 [label="mse = -0.0\nsamples = 1\nvalue = 0.14", fillcolor="#e5813923"] ;
73 -> 121 ;
122 [label="AVG_DP_TUBING <= 0.68\nmse = 0.0\nsamples = 32\nvalue = 0.19", fillcolor="#e5813931"] ;
40 -> 122 ;
123 [label="AVG_WHP_P <= 0.13\nmse = 0.0\nsamples = 5\nvalue = 0.22", fillcolor="#e5813939"] ;
122 -> 123 ;
124 [label="AVG_DOWNHOLE_TEMPERATURE <= 0.91\nmse = 0.0\nsamples = 2\nvalue = 0.22", fillcolor="#e5813937"] ;
123 -> 124 ;
125 [label="mse = 0.0\nsamples = 1\nvalue = 0.21", fillcolor="#e5813936"] ;
124 -> 125 ;
126 [label="mse = -0.0\nsamples = 1\nvalue = 0.22", fillcolor="#e5813938"] ;
124 -> 126 ;
127 [label="AVG_DP_TUBING <= 0.68\nmse = 0.0\nsamples = 3\nvalue = 0.23", fillcolor="#e581393a"] ;
123 -> 127 ;
128 [label="AVG_DOWNHOLE_TEMPERATURE <= 0.91\nmse = 0.0\nsamples = 2\nvalue = 0.23", fillcolor="#e581393b"] ;
127 -> 128 ;
129 [label="mse = 0.0\nsamples = 1\nvalue = 0.23", fillcolor="#e581393b"] ;
128 -> 129 ;
130 [label="mse = -0.0\nsamples = 1\nvalue = 0.23", fillcolor="#e581393a"] ;
128 -> 130 ;
131 [label="mse = 0.0\nsamples = 1\nvalue = 0.22", fillcolor="#e5813939"] ;
127 -> 131 ;
132 [label="AVG_WHP_P <= 0.17\nmse = 0.0\nsamples = 27\nvalue = 0.19", fillcolor="#e5813930"] ;
122 -> 132 ;
133 [label="AVG_DP_TUBING <= 0.74\nmse = 0.0\nsamples = 25\nvalue = 0.19", fillcolor="#e5813931"] ;
132 -> 133 ;
134 [label="AVG_DOWNHOLE_TEMPERATURE <= 0.9\nmse = 0.0\nsamples = 20\nvalue = 0.19", fillcolor="#e5813932"] ;
133 -> 134 ;
135 [label="AVG_DOWNHOLE_TEMPERATURE <= 0.9\nmse = 0.0\nsamples = 19\nvalue = 0.19", fillcolor="#e5813931"] ;
134 -> 135 ;
136 [label="AVG_DP_TUBING <= 0.73\nmse = 0.0\nsamples = 16\nvalue = 0.19", fillcolor="#e5813931"] ;
135 -> 136 ;
137 [label="AVG_DP_TUBING <= 0.73\nmse = 0.0\nsamples = 11\nvalue = 0.19", fillcolor="#e5813931"] ;
136 -> 137 ;
138 [label="AVG_CHOKE_SIZE_P <= 0.39\nmse = 0.0\nsamples = 9\nvalue = 0.19", fillcolor="#e5813931"] ;
137 -> 138 ;
139 [label="AVG_DP_TUBING <= 0.73\nmse = 0.0\nsamples = 7\nvalue = 0.19", fillcolor="#e5813931"] ;
138 -> 139 ;
140 [label="mse = 0.0\nsamples = 6\nvalue = 0.19", fillcolor="#e5813931"] ;
139 -> 140 ;
141 [label="mse = 0.0\nsamples = 1\nvalue = 0.19", fillcolor="#e5813932"] ;
139 -> 141 ;
142 [label="AVG_WHP_P <= 0.13\nmse = 0.0\nsamples = 2\nvalue = 0.19", fillcolor="#e5813932"] ;
138 -> 142 ;
143 [label="mse = 0.0\nsamples = 1\nvalue = 0.2", fillcolor="#e5813932"] ;
142 -> 143 ;
144 [label="mse = -0.0\nsamples = 1\nvalue = 0.19", fillcolor="#e5813931"] ;
142 -> 144 ;
145 [label="DP_CHOKE_SIZE <= 0.12\nmse = 0.0\nsamples = 2\nvalue = 0.19", fillcolor="#e5813931"] ;
137 -> 145 ;
146 [label="mse = 0.0\nsamples = 1\nvalue = 0.19", fillcolor="#e5813931"] ;
145 -> 146 ;
147 [label="mse = 0.0\nsamples = 1\nvalue = 0.19", fillcolor="#e5813931"] ;
145 -> 147 ;
148 [label="DP_CHOKE_SIZE <= 0.11\nmse = 0.0\nsamples = 5\nvalue = 0.19", fillcolor="#e5813930"] ;
136 -> 148 ;
149 [label="mse = 0.0\nsamples = 2\nvalue = 0.19", fillcolor="#e581392f"] ;
148 -> 149 ;
150 [label="mse = 0.0\nsamples = 3\nvalue = 0.19", fillcolor="#e5813930"] ;
148 -> 150 ;
151 [label="AVG_WHP_P <= 0.12\nmse = 0.0\nsamples = 3\nvalue = 0.2", fillcolor="#e5813933"] ;
135 -> 151 ;
152 [label="DP_CHOKE_SIZE <= 0.07\nmse = 0.0\nsamples = 2\nvalue = 0.2", fillcolor="#e5813934"] ;
151 -> 152 ;
153 [label="mse = 0.0\nsamples = 1\nvalue = 0.2", fillcolor="#e5813933"] ;
152 -> 153 ;
154 [label="mse = 0.0\nsamples = 1\nvalue = 0.21", fillcolor="#e5813934"] ;
152 -> 154 ;
155 [label="mse = 0.0\nsamples = 1\nvalue = 0.2", fillcolor="#e5813933"] ;
151 -> 155 ;
156 [label="mse = -0.0\nsamples = 1\nvalue = 0.22", fillcolor="#e5813939"] ;
134 -> 156 ;
157 [label="AVG_WHP_P <= 0.13\nmse = 0.0\nsamples = 5\nvalue = 0.18", fillcolor="#e581392d"] ;
133 -> 157 ;
158 [label="DP_CHOKE_SIZE <= 0.09\nmse = 0.0\nsamples = 3\nvalue = 0.17", fillcolor="#e581392c"] ;
157 -> 158 ;
159 [label="mse = 0.0\nsamples = 2\nvalue = 0.17", fillcolor="#e581392c"] ;
158 -> 159 ;
160 [label="mse = -0.0\nsamples = 1\nvalue = 0.17", fillcolor="#e581392c"] ;
158 -> 160 ;
161 [label="AVG_DP_TUBING <= 0.74\nmse = 0.0\nsamples = 2\nvalue = 0.18", fillcolor="#e581392e"] ;
157 -> 161 ;
162 [label="mse = 0.0\nsamples = 1\nvalue = 0.18", fillcolor="#e581392e"] ;
161 -> 162 ;
163 [label="mse = 0.0\nsamples = 1\nvalue = 0.18", fillcolor="#e581392d"] ;
161 -> 163 ;
164 [label="AVG_CHOKE_SIZE_P <= 0.32\nmse = 0.0\nsamples = 2\nvalue = 0.16", fillcolor="#e5813929"] ;
132 -> 164 ;
165 [label="mse = 0.0\nsamples = 1\nvalue = 0.17", fillcolor="#e581392b"] ;
164 -> 165 ;
166 [label="mse = -0.0\nsamples = 1\nvalue = 0.15", fillcolor="#e5813927"] ;
164 -> 166 ;
167 [label="AVG_DOWNHOLE_TEMPERATURE <= 0.92\nmse = 0.0\nsamples = 10\nvalue = 0.23", fillcolor="#e581393a"] ;
39 -> 167 ;
168 [label="mse = 0.0\nsamples = 1\nvalue = 0.33", fillcolor="#e5813954"] ;
167 -> 168 ;
169 [label="AVG_DP_TUBING <= 0.73\nmse = 0.0\nsamples = 9\nvalue = 0.22", fillcolor="#e5813937"] ;
167 -> 169 ;
170 [label="AVG_DP_TUBING <= 0.67\nmse = 0.0\nsamples = 5\nvalue = 0.19", fillcolor="#e5813931"] ;
169 -> 170 ;
171 [label="mse = 0.0\nsamples = 3\nvalue = 0.19", fillcolor="#e5813931"] ;
170 -> 171 ;
172 [label="mse = 0.0\nsamples = 2\nvalue = 0.19", fillcolor="#e5813931"] ;
170 -> 172 ;
173 [label="AVG_DP_TUBING <= 0.73\nmse = 0.0\nsamples = 4\nvalue = 0.25", fillcolor="#e5813940"] ;
169 -> 173 ;
174 [label="mse = 0.0\nsamples = 1\nvalue = 0.29", fillcolor="#e581394a"] ;
173 -> 174 ;
175 [label="AVG_DP_TUBING <= 0.73\nmse = 0.0\nsamples = 3\nvalue = 0.24", fillcolor="#e581393c"] ;
173 -> 175 ;
176 [label="mse = 0.0\nsamples = 1\nvalue = 0.25", fillcolor="#e581393f"] ;
175 -> 176 ;
177 [label="AVG_CHOKE_SIZE_P <= 0.42\nmse = 0.0\nsamples = 2\nvalue = 0.23", fillcolor="#e581393a"] ;
175 -> 177 ;
178 [label="mse = 0.0\nsamples = 1\nvalue = 0.23", fillcolor="#e581393a"] ;
177 -> 178 ;
179 [label="mse = 0.0\nsamples = 1\nvalue = 0.23", fillcolor="#e581393b"] ;
177 -> 179 ;
180 [label="AVG_DOWNHOLE_PRESSURE <= 0.74\nmse = 0.0\nsamples = 196\nvalue = 0.13", fillcolor="#e5813922"] ;
2 -> 180 ;
181 [label="AVG_WHP_P <= 0.08\nmse = 0.0\nsamples = 68\nvalue = 0.16", fillcolor="#e5813928"] ;
180 -> 181 ;
182 [label="AVG_DOWNHOLE_TEMPERATURE <= 0.89\nmse = 0.0\nsamples = 56\nvalue = 0.16", fillcolor="#e5813928"] ;
181 -> 182 ;
183 [label="DP_CHOKE_SIZE <= 0.02\nmse = 0.0\nsamples = 3\nvalue = 0.14", fillcolor="#e5813924"] ;
182 -> 183 ;
184 [label="mse = 0.0\nsamples = 1\nvalue = 0.14", fillcolor="#e5813924"] ;
183 -> 184 ;
185 [label="mse = 0.0\nsamples = 2\nvalue = 0.14", fillcolor="#e5813924"] ;
183 -> 185 ;
186 [label="AVG_WHP_P <= 0.08\nmse = 0.0\nsamples = 53\nvalue = 0.16", fillcolor="#e5813928"] ;
182 -> 186 ;
187 [label="AVG_DP_TUBING <= 0.76\nmse = 0.0\nsamples = 52\nvalue = 0.16", fillcolor="#e5813928"] ;
186 -> 187 ;
188 [label="mse = 0.0\nsamples = 1\nvalue = 0.14", fillcolor="#e5813924"] ;
187 -> 188 ;
189 [label="AVG_DP_TUBING <= 0.78\nmse = 0.0\nsamples = 51\nvalue = 0.16", fillcolor="#e5813928"] ;
187 -> 189 ;
190 [label="AVG_DOWNHOLE_TEMPERATURE <= 0.89\nmse = 0.0\nsamples = 40\nvalue = 0.16", fillcolor="#e5813928"] ;
189 -> 190 ;
191 [label="AVG_DOWNHOLE_PRESSURE <= 0.73\nmse = 0.0\nsamples = 9\nvalue = 0.16", fillcolor="#e5813929"] ;
190 -> 191 ;
192 [label="DP_CHOKE_SIZE <= 0.03\nmse = 0.0\nsamples = 2\nvalue = 0.15", fillcolor="#e5813927"] ;
191 -> 192 ;
193 [label="mse = 0.0\nsamples = 1\nvalue = 0.15", fillcolor="#e5813927"] ;
192 -> 193 ;
194 [label="mse = 0.0\nsamples = 1\nvalue = 0.15", fillcolor="#e5813926"] ;
192 -> 194 ;
195 [label="AVG_DP_TUBING <= 0.78\nmse = 0.0\nsamples = 7\nvalue = 0.17", fillcolor="#e581392a"] ;
191 -> 195 ;
196 [label="AVG_CHOKE_SIZE_P <= 0.76\nmse = 0.0\nsamples = 3\nvalue = 0.17", fillcolor="#e581392b"] ;
195 -> 196 ;
197 [label="AVG_DOWNHOLE_PRESSURE <= 0.73\nmse = 0.0\nsamples = 2\nvalue = 0.17", fillcolor="#e581392b"] ;
196 -> 197 ;
198 [label="mse = 0.0\nsamples = 1\nvalue = 0.17", fillcolor="#e581392b"] ;
197 -> 198 ;
199 [label="mse = -0.0\nsamples = 1\nvalue = 0.17", fillcolor="#e581392b"] ;
197 -> 199 ;
200 [label="mse = 0.0\nsamples = 1\nvalue = 0.17", fillcolor="#e581392a"] ;
196 -> 200 ;
201 [label="AVG_WHP_P <= 0.07\nmse = 0.0\nsamples = 4\nvalue = 0.17", fillcolor="#e581392a"] ;
195 -> 201 ;
202 [label="mse = 0.0\nsamples = 3\nvalue = 0.16", fillcolor="#e581392a"] ;
201 -> 202 ;
203 [label="mse = -0.0\nsamples = 1\nvalue = 0.17", fillcolor="#e581392a"] ;
201 -> 203 ;
204 [label="AVG_DOWNHOLE_TEMPERATURE <= 0.89\nmse = 0.0\nsamples = 31\nvalue = 0.16", fillcolor="#e5813928"] ;
190 -> 204 ;
205 [label="mse = 0.0\nsamples = 1\nvalue = 0.15", fillcolor="#e5813926"] ;
204 -> 205 ;
206 [label="AVG_DOWNHOLE_PRESSURE <= 0.73\nmse = 0.0\nsamples = 30\nvalue = 0.16", fillcolor="#e5813928"] ;
204 -> 206 ;
207 [label="AVG_DP_TUBING <= 0.77\nmse = 0.0\nsamples = 16\nvalue = 0.16", fillcolor="#e5813928"] ;
206 -> 207 ;
208 [label="DP_CHOKE_SIZE <= 0.03\nmse = 0.0\nsamples = 6\nvalue = 0.16", fillcolor="#e5813929"] ;
207 -> 208 ;
209 [label="AVG_DOWNHOLE_PRESSURE <= 0.72\nmse = 0.0\nsamples = 3\nvalue = 0.16", fillcolor="#e5813928"] ;
208 -> 209 ;
210 [label="mse = 0.0\nsamples = 1\nvalue = 0.16", fillcolor="#e5813929"] ;
209 -> 210 ;
211 [label="mse = 0.0\nsamples = 2\nvalue = 0.16", fillcolor="#e5813928"] ;
209 -> 211 ;
212 [label="mse = 0.0\nsamples = 3\nvalue = 0.16", fillcolor="#e5813929"] ;
208 -> 212 ;
213 [label="AVG_DP_TUBING <= 0.78\nmse = 0.0\nsamples = 10\nvalue = 0.16", fillcolor="#e5813928"] ;
207 -> 213 ;
214 [label="AVG_DP_TUBING <= 0.77\nmse = 0.0\nsamples = 5\nvalue = 0.16", fillcolor="#e5813928"] ;
213 -> 214 ;
215 [label="mse = 0.0\nsamples = 1\nvalue = 0.16", fillcolor="#e5813928"] ;
214 -> 215 ;
216 [label="mse = 0.0\nsamples = 4\nvalue = 0.16", fillcolor="#e5813928"] ;
214 -> 216 ;
217 [label="AVG_DOWNHOLE_TEMPERATURE <= 0.89\nmse = 0.0\nsamples = 5\nvalue = 0.16", fillcolor="#e5813928"] ;
213 -> 217 ;
218 [label="DP_CHOKE_SIZE <= 0.02\nmse = 0.0\nsamples = 4\nvalue = 0.16", fillcolor="#e5813928"] ;
217 -> 218 ;
219 [label="AVG_CHOKE_SIZE_P <= 0.99\nmse = 0.0\nsamples = 2\nvalue = 0.16", fillcolor="#e5813928"] ;
218 -> 219 ;
220 [label="mse = 0.0\nsamples = 1\nvalue = 0.16", fillcolor="#e5813927"] ;
219 -> 220 ;
221 [label="mse = 0.0\nsamples = 1\nvalue = 0.16", fillcolor="#e5813928"] ;
219 -> 221 ;
222 [label="mse = 0.0\nsamples = 2\nvalue = 0.16", fillcolor="#e5813928"] ;
218 -> 222 ;
223 [label="mse = -0.0\nsamples = 1\nvalue = 0.16", fillcolor="#e5813929"] ;
217 -> 223 ;
224 [label="AVG_DOWNHOLE_PRESSURE <= 0.73\nmse = 0.0\nsamples = 14\nvalue = 0.15", fillcolor="#e5813927"] ;
206 -> 224 ;
225 [label="AVG_DOWNHOLE_TEMPERATURE <= 0.89\nmse = 0.0\nsamples = 4\nvalue = 0.16", fillcolor="#e5813928"] ;
224 -> 225 ;
226 [label="AVG_DOWNHOLE_PRESSURE <= 0.73\nmse = 0.0\nsamples = 3\nvalue = 0.16", fillcolor="#e5813928"] ;
225 -> 226 ;
227 [label="mse = 0.0\nsamples = 1\nvalue = 0.16", fillcolor="#e5813928"] ;
226 -> 227 ;
228 [label="mse = 0.0\nsamples = 2\nvalue = 0.16", fillcolor="#e5813928"] ;
226 -> 228 ;
229 [label="mse = -0.0\nsamples = 1\nvalue = 0.16", fillcolor="#e5813927"] ;
225 -> 229 ;
230 [label="AVG_DOWNHOLE_TEMPERATURE <= 0.89\nmse = 0.0\nsamples = 10\nvalue = 0.15", fillcolor="#e5813927"] ;
224 -> 230 ;
231 [label="AVG_DOWNHOLE_TEMPERATURE <= 0.89\nmse = 0.0\nsamples = 8\nvalue = 0.15", fillcolor="#e5813927"] ;
230 -> 231 ;
232 [label="mse = 0.0\nsamples = 1\nvalue = 0.16", fillcolor="#e5813928"] ;
231 -> 232 ;
233 [label="AVG_DOWNHOLE_TEMPERATURE <= 0.89\nmse = 0.0\nsamples = 7\nvalue = 0.15", fillcolor="#e5813927"] ;
231 -> 233 ;
234 [label="mse = 0.0\nsamples = 3\nvalue = 0.15", fillcolor="#e5813927"] ;
233 -> 234 ;
235 [label="mse = 0.0\nsamples = 4\nvalue = 0.15", fillcolor="#e5813927"] ;
233 -> 235 ;
236 [label="mse = 0.0\nsamples = 2\nvalue = 0.15", fillcolor="#e5813927"] ;
230 -> 236 ;
237 [label="AVG_DOWNHOLE_TEMPERATURE <= 0.89\nmse = 0.0\nsamples = 11\nvalue = 0.15", fillcolor="#e5813927"] ;
189 -> 237 ;
238 [label="AVG_DOWNHOLE_PRESSURE <= 0.73\nmse = 0.0\nsamples = 8\nvalue = 0.15", fillcolor="#e5813927"] ;
237 -> 238 ;
239 [label="AVG_WHP_P <= 0.06\nmse = 0.0\nsamples = 3\nvalue = 0.15", fillcolor="#e5813927"] ;
238 -> 239 ;
240 [label="mse = 0.0\nsamples = 1\nvalue = 0.15", fillcolor="#e5813927"] ;
239 -> 240 ;
241 [label="mse = 0.0\nsamples = 2\nvalue = 0.15", fillcolor="#e5813927"] ;
239 -> 241 ;
242 [label="AVG_DOWNHOLE_PRESSURE <= 0.73\nmse = 0.0\nsamples = 5\nvalue = 0.15", fillcolor="#e5813927"] ;
238 -> 242 ;
243 [label="mse = 0.0\nsamples = 3\nvalue = 0.15", fillcolor="#e5813926"] ;
242 -> 243 ;
244 [label="mse = 0.0\nsamples = 2\nvalue = 0.15", fillcolor="#e5813927"] ;
242 -> 244 ;
245 [label="mse = 0.0\nsamples = 3\nvalue = 0.15", fillcolor="#e5813927"] ;
237 -> 245 ;
246 [label="mse = -0.0\nsamples = 1\nvalue = 0.14", fillcolor="#e5813924"] ;
186 -> 246 ;
247 [label="DP_CHOKE_SIZE <= 0.06\nmse = 0.0\nsamples = 12\nvalue = 0.16", fillcolor="#e581392a"] ;
181 -> 247 ;
248 [label="DP_CHOKE_SIZE <= 0.05\nmse = 0.0\nsamples = 11\nvalue = 0.17", fillcolor="#e581392a"] ;
247 -> 248 ;
249 [label="AVG_DOWNHOLE_TEMPERATURE <= 0.9\nmse = 0.0\nsamples = 2\nvalue = 0.16", fillcolor="#e5813929"] ;
248 -> 249 ;
250 [label="mse = 0.0\nsamples = 1\nvalue = 0.16", fillcolor="#e5813929"] ;
249 -> 250 ;
251 [label="mse = -0.0\nsamples = 1\nvalue = 0.16", fillcolor="#e581392a"] ;
249 -> 251 ;
252 [label="AVG_CHOKE_SIZE_P <= 0.64\nmse = 0.0\nsamples = 9\nvalue = 0.17", fillcolor="#e581392b"] ;
248 -> 252 ;
253 [label="AVG_CHOKE_SIZE_P <= 0.63\nmse = 0.0\nsamples = 8\nvalue = 0.17", fillcolor="#e581392b"] ;
252 -> 253 ;
254 [label="AVG_DOWNHOLE_TEMPERATURE <= 0.9\nmse = 0.0\nsamples = 7\nvalue = 0.17", fillcolor="#e581392b"] ;
253 -> 254 ;
255 [label="mse = 0.0\nsamples = 2\nvalue = 0.17", fillcolor="#e581392b"] ;
254 -> 255 ;
256 [label="AVG_DOWNHOLE_TEMPERATURE <= 0.9\nmse = 0.0\nsamples = 5\nvalue = 0.17", fillcolor="#e581392b"] ;
254 -> 256 ;
257 [label="mse = 0.0\nsamples = 1\nvalue = 0.17", fillcolor="#e581392b"] ;
256 -> 257 ;
258 [label="AVG_CHOKE_SIZE_P <= 0.54\nmse = 0.0\nsamples = 4\nvalue = 0.17", fillcolor="#e581392b"] ;
256 -> 258 ;
259 [label="mse = 0.0\nsamples = 2\nvalue = 0.17", fillcolor="#e581392b"] ;
258 -> 259 ;
260 [label="mse = 0.0\nsamples = 2\nvalue = 0.17", fillcolor="#e581392b"] ;
258 -> 260 ;
261 [label="mse = 0.0\nsamples = 1\nvalue = 0.17", fillcolor="#e581392a"] ;
253 -> 261 ;
262 [label="mse = -0.0\nsamples = 1\nvalue = 0.16", fillcolor="#e5813929"] ;
252 -> 262 ;
263 [label="mse = -0.0\nsamples = 1\nvalue = 0.14", fillcolor="#e5813924"] ;
247 -> 263 ;
264 [label="AVG_CHOKE_SIZE_P <= 0.56\nmse = 0.0\nsamples = 128\nvalue = 0.12", fillcolor="#e581391f"] ;
180 -> 264 ;
265 [label="AVG_CHOKE_SIZE_P <= 0.26\nmse = 0.0\nsamples = 8\nvalue = 0.07", fillcolor="#e5813912"] ;
264 -> 265 ;
266 [label="AVG_CHOKE_SIZE_P <= 0.24\nmse = 0.0\nsamples = 3\nvalue = 0.06", fillcolor="#e5813910"] ;
265 -> 266 ;
267 [label="AVG_DP_TUBING <= 0.77\nmse = 0.0\nsamples = 2\nvalue = 0.06", fillcolor="#e581390f"] ;
266 -> 267 ;
268 [label="mse = 0.0\nsamples = 1\nvalue = 0.06", fillcolor="#e581390f"] ;
267 -> 268 ;
269 [label="mse = -0.0\nsamples = 1\nvalue = 0.06", fillcolor="#e581390f"] ;
267 -> 269 ;
270 [label="mse = 0.0\nsamples = 1\nvalue = 0.07", fillcolor="#e5813911"] ;
266 -> 270 ;
271 [label="DP_CHOKE_SIZE <= 0.05\nmse = 0.0\nsamples = 5\nvalue = 0.08", fillcolor="#e5813914"] ;
265 -> 271 ;
272 [label="AVG_DOWNHOLE_PRESSURE <= 0.74\nmse = 0.0\nsamples = 3\nvalue = 0.07", fillcolor="#e5813912"] ;
271 -> 272 ;
273 [label="mse = 0.0\nsamples = 1\nvalue = 0.06", fillcolor="#e5813910"] ;
272 -> 273 ;
274 [label="DP_CHOKE_SIZE <= 0.04\nmse = 0.0\nsamples = 2\nvalue = 0.08", fillcolor="#e5813913"] ;
272 -> 274 ;
275 [label="mse = 0.0\nsamples = 1\nvalue = 0.08", fillcolor="#e5813914"] ;
274 -> 275 ;
276 [label="mse = 0.0\nsamples = 1\nvalue = 0.07", fillcolor="#e5813913"] ;
274 -> 276 ;
277 [label="AVG_DOWNHOLE_PRESSURE <= 0.76\nmse = 0.0\nsamples = 2\nvalue = 0.09", fillcolor="#e5813917"] ;
271 -> 277 ;
278 [label="mse = 0.0\nsamples = 1\nvalue = 0.09", fillcolor="#e5813917"] ;
277 -> 278 ;
279 [label="mse = 0.0\nsamples = 1\nvalue = 0.09", fillcolor="#e5813917"] ;
277 -> 279 ;
280 [label="AVG_DOWNHOLE_PRESSURE <= 0.76\nmse = 0.0\nsamples = 120\nvalue = 0.12", fillcolor="#e5813920"] ;
264 -> 280 ;
281 [label="AVG_DOWNHOLE_TEMPERATURE <= 0.88\nmse = 0.0\nsamples = 63\nvalue = 0.14", fillcolor="#e5813923"] ;
280 -> 281 ;
282 [label="AVG_DP_TUBING <= 0.8\nmse = 0.0\nsamples = 12\nvalue = 0.12", fillcolor="#e581391f"] ;
281 -> 282 ;
283 [label="DP_CHOKE_SIZE <= 0.02\nmse = 0.0\nsamples = 9\nvalue = 0.12", fillcolor="#e581391f"] ;
282 -> 283 ;
284 [label="AVG_WHP_P <= 0.06\nmse = 0.0\nsamples = 5\nvalue = 0.12", fillcolor="#e581391e"] ;
283 -> 284 ;
285 [label="AVG_WHP_P <= 0.06\nmse = 0.0\nsamples = 4\nvalue = 0.12", fillcolor="#e581391f"] ;
284 -> 285 ;
286 [label="mse = 0.0\nsamples = 2\nvalue = 0.12", fillcolor="#e581391f"] ;
285 -> 286 ;
287 [label="mse = 0.0\nsamples = 2\nvalue = 0.12", fillcolor="#e581391e"] ;
285 -> 287 ;
288 [label="mse = -0.0\nsamples = 1\nvalue = 0.12", fillcolor="#e581391e"] ;
284 -> 288 ;
289 [label="AVG_WHP_P <= 0.06\nmse = 0.0\nsamples = 4\nvalue = 0.12", fillcolor="#e581391f"] ;
283 -> 289 ;
290 [label="mse = 0.0\nsamples = 3\nvalue = 0.12", fillcolor="#e581391f"] ;
289 -> 290 ;
291 [label="mse = -0.0\nsamples = 1\nvalue = 0.12", fillcolor="#e581391f"] ;
289 -> 291 ;
292 [label="AVG_DP_TUBING <= 0.81\nmse = 0.0\nsamples = 3\nvalue = 0.13", fillcolor="#e5813921"] ;
282 -> 292 ;
293 [label="mse = 0.0\nsamples = 2\nvalue = 0.13", fillcolor="#e5813921"] ;
292 -> 293 ;
294 [label="mse = -0.0\nsamples = 1\nvalue = 0.13", fillcolor="#e5813921"] ;
292 -> 294 ;
295 [label="AVG_DOWNHOLE_TEMPERATURE <= 0.89\nmse = 0.0\nsamples = 51\nvalue = 0.14", fillcolor="#e5813924"] ;
281 -> 295 ;
296 [label="AVG_DP_TUBING <= 0.8\nmse = 0.0\nsamples = 38\nvalue = 0.14", fillcolor="#e5813923"] ;
295 -> 296 ;
297 [label="AVG_DOWNHOLE_TEMPERATURE <= 0.88\nmse = 0.0\nsamples = 14\nvalue = 0.14", fillcolor="#e5813924"] ;
296 -> 297 ;
298 [label="mse = 0.0\nsamples = 1\nvalue = 0.15", fillcolor="#e5813927"] ;
297 -> 298 ;
299 [label="DP_CHOKE_SIZE <= 0.02\nmse = 0.0\nsamples = 13\nvalue = 0.14", fillcolor="#e5813924"] ;
297 -> 299 ;
300 [label="AVG_WHP_P <= 0.06\nmse = 0.0\nsamples = 6\nvalue = 0.14", fillcolor="#e5813923"] ;
299 -> 300 ;
301 [label="AVG_WHP_P <= 0.06\nmse = 0.0\nsamples = 5\nvalue = 0.14", fillcolor="#e5813924"] ;
300 -> 301 ;
302 [label="DP_CHOKE_SIZE <= 0.02\nmse = 0.0\nsamples = 3\nvalue = 0.14", fillcolor="#e5813923"] ;
301 -> 302 ;
303 [label="mse = 0.0\nsamples = 1\nvalue = 0.14", fillcolor="#e5813924"] ;
302 -> 303 ;
304 [label="AVG_DOWNHOLE_PRESSURE <= 0.74\nmse = 0.0\nsamples = 2\nvalue = 0.14", fillcolor="#e5813923"] ;
302 -> 304 ;
305 [label="mse = 0.0\nsamples = 1\nvalue = 0.14", fillcolor="#e5813923"] ;
304 -> 305 ;
306 [label="mse = 0.0\nsamples = 1\nvalue = 0.14", fillcolor="#e5813923"] ;
304 -> 306 ;
307 [label="AVG_DOWNHOLE_TEMPERATURE <= 0.89\nmse = 0.0\nsamples = 2\nvalue = 0.14", fillcolor="#e5813924"] ;
301 -> 307 ;
308 [label="mse = 0.0\nsamples = 1\nvalue = 0.14", fillcolor="#e5813924"] ;
307 -> 308 ;
309 [label="mse = -0.0\nsamples = 1\nvalue = 0.14", fillcolor="#e5813924"] ;
307 -> 309 ;
310 [label="mse = 0.0\nsamples = 1\nvalue = 0.14", fillcolor="#e5813922"] ;
300 -> 310 ;
311 [label="DP_CHOKE_SIZE <= 0.03\nmse = 0.0\nsamples = 7\nvalue = 0.14", fillcolor="#e5813924"] ;
299 -> 311 ;
312 [label="AVG_DOWNHOLE_TEMPERATURE <= 0.89\nmse = 0.0\nsamples = 5\nvalue = 0.14", fillcolor="#e5813924"] ;
311 -> 312 ;
313 [label="mse = 0.0\nsamples = 2\nvalue = 0.14", fillcolor="#e5813924"] ;
312 -> 313 ;
314 [label="mse = 0.0\nsamples = 3\nvalue = 0.14", fillcolor="#e5813925"] ;
312 -> 314 ;
315 [label="AVG_DOWNHOLE_PRESSURE <= 0.75\nmse = 0.0\nsamples = 2\nvalue = 0.14", fillcolor="#e5813924"] ;
311 -> 315 ;
316 [label="mse = 0.0\nsamples = 1\nvalue = 0.14", fillcolor="#e5813924"] ;
315 -> 316 ;
317 [label="mse = -0.0\nsamples = 1\nvalue = 0.14", fillcolor="#e5813924"] ;
315 -> 317 ;
318 [label="AVG_DP_TUBING <= 0.81\nmse = 0.0\nsamples = 24\nvalue = 0.14", fillcolor="#e5813922"] ;
296 -> 318 ;
319 [label="AVG_DP_TUBING <= 0.8\nmse = 0.0\nsamples = 23\nvalue = 0.14", fillcolor="#e5813923"] ;
318 -> 319 ;
320 [label="mse = 0.0\nsamples = 1\nvalue = 0.13", fillcolor="#e5813920"] ;
319 -> 320 ;
321 [label="DP_CHOKE_SIZE <= 0.02\nmse = 0.0\nsamples = 22\nvalue = 0.14", fillcolor="#e5813923"] ;
319 -> 321 ;
322 [label="AVG_DOWNHOLE_TEMPERATURE <= 0.89\nmse = 0.0\nsamples = 5\nvalue = 0.14", fillcolor="#e5813923"] ;
321 -> 322 ;
323 [label="mse = 0.0\nsamples = 4\nvalue = 0.14", fillcolor="#e5813924"] ;
322 -> 323 ;
324 [label="mse = 0.0\nsamples = 1\nvalue = 0.14", fillcolor="#e5813922"] ;
322 -> 324 ;
325 [label="AVG_DOWNHOLE_TEMPERATURE <= 0.89\nmse = 0.0\nsamples = 17\nvalue = 0.14", fillcolor="#e5813922"] ;
321 -> 325 ;
326 [label="DP_CHOKE_SIZE <= 0.03\nmse = 0.0\nsamples = 14\nvalue = 0.13", fillcolor="#e5813922"] ;
325 -> 326 ;
327 [label="AVG_WHP_P <= 0.06\nmse = 0.0\nsamples = 7\nvalue = 0.13", fillcolor="#e5813922"] ;
326 -> 327 ;
328 [label="AVG_DP_TUBING <= 0.8\nmse = 0.0\nsamples = 3\nvalue = 0.14", fillcolor="#e5813923"] ;
327 -> 328 ;
329 [label="AVG_DOWNHOLE_PRESSURE <= 0.75\nmse = 0.0\nsamples = 2\nvalue = 0.14", fillcolor="#e5813922"] ;
328 -> 329 ;
330 [label="mse = 0.0\nsamples = 1\nvalue = 0.13", fillcolor="#e5813922"] ;
329 -> 330 ;
331 [label="mse = -0.0\nsamples = 1\nvalue = 0.14", fillcolor="#e5813922"] ;
329 -> 331 ;
332 [label="mse = 0.0\nsamples = 1\nvalue = 0.14", fillcolor="#e5813923"] ;
328 -> 332 ;
333 [label="AVG_WHP_P <= 0.06\nmse = 0.0\nsamples = 4\nvalue = 0.13", fillcolor="#e5813921"] ;
327 -> 333 ;
334 [label="mse = 0.0\nsamples = 2\nvalue = 0.13", fillcolor="#e5813921"] ;
333 -> 334 ;
335 [label="mse = 0.0\nsamples = 2\nvalue = 0.13", fillcolor="#e5813921"] ;
333 -> 335 ;
336 [label="AVG_WHP_P <= 0.06\nmse = 0.0\nsamples = 7\nvalue = 0.14", fillcolor="#e5813923"] ;
326 -> 336 ;
337 [label="mse = 0.0\nsamples = 1\nvalue = 0.13", fillcolor="#e5813922"] ;
336 -> 337 ;
338 [label="AVG_WHP_P <= 0.06\nmse = 0.0\nsamples = 6\nvalue = 0.14", fillcolor="#e5813923"] ;
336 -> 338 ;
339 [label="AVG_DOWNHOLE_TEMPERATURE <= 0.88\nmse = 0.0\nsamples = 3\nvalue = 0.14", fillcolor="#e5813923"] ;
338 -> 339 ;
340 [label="mse = 0.0\nsamples = 1\nvalue = 0.14", fillcolor="#e5813923"] ;
339 -> 340 ;
341 [label="AVG_DOWNHOLE_TEMPERATURE <= 0.88\nmse = 0.0\nsamples = 2\nvalue = 0.14", fillcolor="#e5813923"] ;
339 -> 341 ;
342 [label="mse = 0.0\nsamples = 1\nvalue = 0.14", fillcolor="#e5813923"] ;
341 -> 342 ;
343 [label="mse = -0.0\nsamples = 1\nvalue = 0.14", fillcolor="#e5813923"] ;
341 -> 343 ;
344 [label="AVG_DOWNHOLE_PRESSURE <= 0.76\nmse = 0.0\nsamples = 3\nvalue = 0.14", fillcolor="#e5813923"] ;
338 -> 344 ;
345 [label="mse = 0.0\nsamples = 2\nvalue = 0.14", fillcolor="#e5813923"] ;
344 -> 345 ;
346 [label="mse = 0.0\nsamples = 1\nvalue = 0.14", fillcolor="#e5813922"] ;
344 -> 346 ;
347 [label="DP_CHOKE_SIZE <= 0.02\nmse = 0.0\nsamples = 3\nvalue = 0.14", fillcolor="#e5813923"] ;
325 -> 347 ;
348 [label="mse = 0.0\nsamples = 1\nvalue = 0.14", fillcolor="#e5813924"] ;
347 -> 348 ;
349 [label="AVG_DOWNHOLE_PRESSURE <= 0.75\nmse = 0.0\nsamples = 2\nvalue = 0.14", fillcolor="#e5813923"] ;
347 -> 349 ;
350 [label="mse = 0.0\nsamples = 1\nvalue = 0.14", fillcolor="#e5813923"] ;
349 -> 350 ;
351 [label="mse = 0.0\nsamples = 1\nvalue = 0.14", fillcolor="#e5813923"] ;
349 -> 351 ;
352 [label="mse = 0.0\nsamples = 1\nvalue = 0.12", fillcolor="#e5813920"] ;
318 -> 352 ;
353 [label="AVG_WHP_P <= 0.07\nmse = 0.0\nsamples = 13\nvalue = 0.15", fillcolor="#e5813926"] ;
295 -> 353 ;
354 [label="DP_CHOKE_SIZE <= 0.06\nmse = 0.0\nsamples = 11\nvalue = 0.15", fillcolor="#e5813927"] ;
353 -> 354 ;
355 [label="AVG_DOWNHOLE_TEMPERATURE <= 0.89\nmse = 0.0\nsamples = 10\nvalue = 0.15", fillcolor="#e5813927"] ;
354 -> 355 ;
356 [label="AVG_DOWNHOLE_PRESSURE <= 0.75\nmse = 0.0\nsamples = 9\nvalue = 0.15", fillcolor="#e5813927"] ;
355 -> 356 ;
357 [label="AVG_DOWNHOLE_PRESSURE <= 0.74\nmse = 0.0\nsamples = 5\nvalue = 0.15", fillcolor="#e5813927"] ;
356 -> 357 ;
358 [label="mse = 0.0\nsamples = 4\nvalue = 0.15", fillcolor="#e5813927"] ;
357 -> 358 ;
359 [label="mse = -0.0\nsamples = 1\nvalue = 0.15", fillcolor="#e5813927"] ;
357 -> 359 ;
360 [label="mse = 0.0\nsamples = 4\nvalue = 0.15", fillcolor="#e5813926"] ;
356 -> 360 ;
361 [label="mse = -0.0\nsamples = 1\nvalue = 0.15", fillcolor="#e5813926"] ;
355 -> 361 ;
362 [label="mse = 0.0\nsamples = 1\nvalue = 0.16", fillcolor="#e5813928"] ;
354 -> 362 ;
363 [label="AVG_DOWNHOLE_PRESSURE <= 0.74\nmse = 0.0\nsamples = 2\nvalue = 0.15", fillcolor="#e5813925"] ;
353 -> 363 ;
364 [label="mse = 0.0\nsamples = 1\nvalue = 0.15", fillcolor="#e5813925"] ;
363 -> 364 ;
365 [label="mse = 0.0\nsamples = 1\nvalue = 0.15", fillcolor="#e5813925"] ;
363 -> 365 ;
366 [label="AVG_DOWNHOLE_TEMPERATURE <= 0.88\nmse = 0.0\nsamples = 57\nvalue = 0.11", fillcolor="#e581391c"] ;
280 -> 366 ;
367 [label="AVG_WHP_P <= 0.06\nmse = 0.0\nsamples = 29\nvalue = 0.1", fillcolor="#e581391a"] ;
366 -> 367 ;
368 [label="AVG_WHP_P <= 0.05\nmse = 0.0\nsamples = 25\nvalue = 0.11", fillcolor="#e581391b"] ;
367 -> 368 ;
369 [label="mse = 0.0\nsamples = 1\nvalue = 0.09", fillcolor="#e5813916"] ;
368 -> 369 ;
370 [label="AVG_DP_TUBING <= 0.83\nmse = 0.0\nsamples = 24\nvalue = 0.11", fillcolor="#e581391b"] ;
368 -> 370 ;
371 [label="DP_CHOKE_SIZE <= 0.02\nmse = 0.0\nsamples = 8\nvalue = 0.11", fillcolor="#e581391c"] ;
370 -> 371 ;
372 [label="AVG_DOWNHOLE_TEMPERATURE <= 0.88\nmse = 0.0\nsamples = 5\nvalue = 0.11", fillcolor="#e581391c"] ;
371 -> 372 ;
373 [label="AVG_DP_TUBING <= 0.83\nmse = 0.0\nsamples = 3\nvalue = 0.11", fillcolor="#e581391c"] ;
372 -> 373 ;
374 [label="AVG_DP_TUBING <= 0.83\nmse = 0.0\nsamples = 2\nvalue = 0.11", fillcolor="#e581391c"] ;
373 -> 374 ;
375 [label="mse = 0.0\nsamples = 1\nvalue = 0.11", fillcolor="#e581391c"] ;
374 -> 375 ;
376 [label="mse = -0.0\nsamples = 1\nvalue = 0.11", fillcolor="#e581391c"] ;
374 -> 376 ;
377 [label="mse = -0.0\nsamples = 1\nvalue = 0.11", fillcolor="#e581391c"] ;
373 -> 377 ;
378 [label="mse = 0.0\nsamples = 2\nvalue = 0.11", fillcolor="#e581391c"] ;
372 -> 378 ;
379 [label="DP_CHOKE_SIZE <= 0.02\nmse = 0.0\nsamples = 3\nvalue = 0.11", fillcolor="#e581391b"] ;
371 -> 379 ;
380 [label="mse = 0.0\nsamples = 1\nvalue = 0.1", fillcolor="#e581391b"] ;
379 -> 380 ;
381 [label="DP_CHOKE_SIZE <= 0.02\nmse = 0.0\nsamples = 2\nvalue = 0.11", fillcolor="#e581391c"] ;
379 -> 381 ;
382 [label="mse = 0.0\nsamples = 1\nvalue = 0.11", fillcolor="#e581391c"] ;
381 -> 382 ;
383 [label="mse = 0.0\nsamples = 1\nvalue = 0.11", fillcolor="#e581391c"] ;
381 -> 383 ;
384 [label="DP_CHOKE_SIZE <= 0.02\nmse = 0.0\nsamples = 16\nvalue = 0.1", fillcolor="#e581391b"] ;
370 -> 384 ;
385 [label="AVG_DOWNHOLE_PRESSURE <= 0.78\nmse = 0.0\nsamples = 15\nvalue = 0.11", fillcolor="#e581391b"] ;
384 -> 385 ;
386 [label="AVG_DOWNHOLE_PRESSURE <= 0.78\nmse = 0.0\nsamples = 2\nvalue = 0.1", fillcolor="#e581391a"] ;
385 -> 386 ;
387 [label="mse = 0.0\nsamples = 1\nvalue = 0.1", fillcolor="#e581391a"] ;
386 -> 387 ;
388 [label="mse = 0.0\nsamples = 1\nvalue = 0.1", fillcolor="#e581391a"] ;
386 -> 388 ;
389 [label="AVG_DP_TUBING <= 0.83\nmse = 0.0\nsamples = 13\nvalue = 0.11", fillcolor="#e581391b"] ;
385 -> 389 ;
390 [label="mse = 0.0\nsamples = 1\nvalue = 0.11", fillcolor="#e581391b"] ;
389 -> 390 ;
391 [label="AVG_DP_TUBING <= 0.84\nmse = 0.0\nsamples = 12\nvalue = 0.11", fillcolor="#e581391b"] ;
389 -> 391 ;
392 [label="DP_CHOKE_SIZE <= 0.02\nmse = 0.0\nsamples = 11\nvalue = 0.11", fillcolor="#e581391b"] ;
391 -> 392 ;
393 [label="AVG_DOWNHOLE_TEMPERATURE <= 0.88\nmse = 0.0\nsamples = 8\nvalue = 0.11", fillcolor="#e581391b"] ;
392 -> 393 ;
394 [label="mse = 0.0\nsamples = 6\nvalue = 0.11", fillcolor="#e581391b"] ;
393 -> 394 ;
395 [label="mse = 0.0\nsamples = 2\nvalue = 0.11", fillcolor="#e581391b"] ;
393 -> 395 ;
396 [label="AVG_DP_TUBING <= 0.84\nmse = 0.0\nsamples = 3\nvalue = 0.11", fillcolor="#e581391b"] ;
392 -> 396 ;
397 [label="mse = 0.0\nsamples = 2\nvalue = 0.11", fillcolor="#e581391b"] ;
396 -> 397 ;
398 [label="mse = -0.0\nsamples = 1\nvalue = 0.1", fillcolor="#e581391b"] ;
396 -> 398 ;
399 [label="mse = -0.0\nsamples = 1\nvalue = 0.1", fillcolor="#e581391b"] ;
391 -> 399 ;
400 [label="mse = 0.0\nsamples = 1\nvalue = 0.1", fillcolor="#e5813918"] ;
384 -> 400 ;
401 [label="DP_CHOKE_SIZE <= 0.03\nmse = 0.0\nsamples = 4\nvalue = 0.09", fillcolor="#e5813916"] ;
367 -> 401 ;
402 [label="AVG_CHOKE_SIZE_P <= 1.0\nmse = 0.0\nsamples = 2\nvalue = 0.09", fillcolor="#e5813918"] ;
401 -> 402 ;
403 [label="mse = 0.0\nsamples = 1\nvalue = 0.1", fillcolor="#e5813918"] ;
402 -> 403 ;
404 [label="mse = 0.0\nsamples = 1\nvalue = 0.09", fillcolor="#e5813918"] ;
402 -> 404 ;
405 [label="AVG_CHOKE_SIZE_P <= 0.87\nmse = 0.0\nsamples = 2\nvalue = 0.08", fillcolor="#e5813915"] ;
401 -> 405 ;
406 [label="mse = 0.0\nsamples = 1\nvalue = 0.08", fillcolor="#e5813914"] ;
405 -> 406 ;
407 [label="mse = 0.0\nsamples = 1\nvalue = 0.08", fillcolor="#e5813915"] ;
405 -> 407 ;
408 [label="AVG_WHP_P <= 0.06\nmse = 0.0\nsamples = 28\nvalue = 0.12", fillcolor="#e581391e"] ;
366 -> 408 ;
409 [label="AVG_DOWNHOLE_TEMPERATURE <= 0.88\nmse = 0.0\nsamples = 22\nvalue = 0.12", fillcolor="#e581391e"] ;
408 -> 409 ;
410 [label="AVG_DOWNHOLE_TEMPERATURE <= 0.88\nmse = 0.0\nsamples = 13\nvalue = 0.12", fillcolor="#e581391e"] ;
409 -> 410 ;
411 [label="AVG_WHP_P <= 0.05\nmse = 0.0\nsamples = 8\nvalue = 0.12", fillcolor="#e581391e"] ;
410 -> 411 ;
412 [label="AVG_DP_TUBING <= 0.83\nmse = 0.0\nsamples = 2\nvalue = 0.12", fillcolor="#e581391d"] ;
411 -> 412 ;
413 [label="mse = 0.0\nsamples = 1\nvalue = 0.11", fillcolor="#e581391d"] ;
412 -> 413 ;
414 [label="mse = 0.0\nsamples = 1\nvalue = 0.12", fillcolor="#e581391e"] ;
412 -> 414 ;
415 [label="AVG_DP_TUBING <= 0.83\nmse = 0.0\nsamples = 6\nvalue = 0.12", fillcolor="#e581391e"] ;
411 -> 415 ;
416 [label="AVG_DP_TUBING <= 0.82\nmse = 0.0\nsamples = 2\nvalue = 0.12", fillcolor="#e581391e"] ;
415 -> 416 ;
417 [label="mse = 0.0\nsamples = 1\nvalue = 0.12", fillcolor="#e581391e"] ;
416 -> 417 ;
418 [label="mse = 0.0\nsamples = 1\nvalue = 0.12", fillcolor="#e581391e"] ;
416 -> 418 ;
419 [label="AVG_DOWNHOLE_TEMPERATURE <= 0.88\nmse = 0.0\nsamples = 4\nvalue = 0.12", fillcolor="#e581391f"] ;
415 -> 419 ;
420 [label="AVG_DOWNHOLE_PRESSURE <= 0.77\nmse = 0.0\nsamples = 3\nvalue = 0.12", fillcolor="#e581391e"] ;
419 -> 420 ;
421 [label="mse = 0.0\nsamples = 2\nvalue = 0.12", fillcolor="#e581391e"] ;
420 -> 421 ;
422 [label="mse = 0.0\nsamples = 1\nvalue = 0.12", fillcolor="#e581391e"] ;
420 -> 422 ;
423 [label="mse = -0.0\nsamples = 1\nvalue = 0.12", fillcolor="#e581391f"] ;
419 -> 423 ;
424 [label="AVG_DOWNHOLE_PRESSURE <= 0.77\nmse = 0.0\nsamples = 5\nvalue = 0.11", fillcolor="#e581391d"] ;
410 -> 424 ;
425 [label="mse = 0.0\nsamples = 1\nvalue = 0.12", fillcolor="#e581391e"] ;
424 -> 425 ;
426 [label="AVG_DOWNHOLE_TEMPERATURE <= 0.88\nmse = 0.0\nsamples = 4\nvalue = 0.11", fillcolor="#e581391c"] ;
424 -> 426 ;
427 [label="AVG_WHP_P <= 0.05\nmse = 0.0\nsamples = 3\nvalue = 0.11", fillcolor="#e581391c"] ;
426 -> 427 ;
428 [label="mse = 0.0\nsamples = 2\nvalue = 0.11", fillcolor="#e581391c"] ;
427 -> 428 ;
429 [label="mse = -0.0\nsamples = 1\nvalue = 0.11", fillcolor="#e581391c"] ;
427 -> 429 ;
430 [label="mse = 0.0\nsamples = 1\nvalue = 0.11", fillcolor="#e581391c"] ;
426 -> 430 ;
431 [label="DP_CHOKE_SIZE <= 0.02\nmse = 0.0\nsamples = 9\nvalue = 0.12", fillcolor="#e581391f"] ;
409 -> 431 ;
432 [label="AVG_DP_TUBING <= 0.82\nmse = 0.0\nsamples = 5\nvalue = 0.12", fillcolor="#e581391f"] ;
431 -> 432 ;
433 [label="AVG_DOWNHOLE_TEMPERATURE <= 0.88\nmse = 0.0\nsamples = 4\nvalue = 0.12", fillcolor="#e581391f"] ;
432 -> 433 ;
434 [label="mse = 0.0\nsamples = 1\nvalue = 0.12", fillcolor="#e581391f"] ;
433 -> 434 ;
435 [label="mse = 0.0\nsamples = 3\nvalue = 0.12", fillcolor="#e581391f"] ;
433 -> 435 ;
436 [label="mse = 0.0\nsamples = 1\nvalue = 0.12", fillcolor="#e581391e"] ;
432 -> 436 ;
437 [label="AVG_DP_TUBING <= 0.81\nmse = 0.0\nsamples = 4\nvalue = 0.12", fillcolor="#e581391f"] ;
431 -> 437 ;
438 [label="mse = 0.0\nsamples = 2\nvalue = 0.12", fillcolor="#e581391f"] ;
437 -> 438 ;
439 [label="AVG_WHP_P <= 0.06\nmse = 0.0\nsamples = 2\nvalue = 0.12", fillcolor="#e5813920"] ;
437 -> 439 ;
440 [label="mse = 0.0\nsamples = 1\nvalue = 0.12", fillcolor="#e581391f"] ;
439 -> 440 ;
441 [label="mse = 0.0\nsamples = 1\nvalue = 0.13", fillcolor="#e5813920"] ;
439 -> 441 ;
442 [label="AVG_DP_TUBING <= 0.82\nmse = 0.0\nsamples = 6\nvalue = 0.11", fillcolor="#e581391c"] ;
408 -> 442 ;
443 [label="AVG_DOWNHOLE_TEMPERATURE <= 0.88\nmse = 0.0\nsamples = 4\nvalue = 0.11", fillcolor="#e581391d"] ;
442 -> 443 ;
444 [label="AVG_DOWNHOLE_TEMPERATURE <= 0.88\nmse = 0.0\nsamples = 2\nvalue = 0.12", fillcolor="#e581391e"] ;
443 -> 444 ;
445 [label="mse = 0.0\nsamples = 1\nvalue = 0.12", fillcolor="#e581391e"] ;
444 -> 445 ;
446 [label="mse = -0.0\nsamples = 1\nvalue = 0.12", fillcolor="#e581391e"] ;
444 -> 446 ;
447 [label="AVG_DOWNHOLE_TEMPERATURE <= 0.89\nmse = 0.0\nsamples = 2\nvalue = 0.11", fillcolor="#e581391c"] ;
443 -> 447 ;
448 [label="mse = 0.0\nsamples = 1\nvalue = 0.11", fillcolor="#e581391c"] ;
447 -> 448 ;
449 [label="mse = -0.0\nsamples = 1\nvalue = 0.11", fillcolor="#e581391c"] ;
447 -> 449 ;
450 [label="mse = 0.0\nsamples = 2\nvalue = 0.1", fillcolor="#e581391a"] ;
442 -> 450 ;
451 [label="AVG_DP_TUBING <= 0.93\nmse = 0.0\nsamples = 661\nvalue = 0.04", fillcolor="#e5813909"] ;
1 -> 451 ;
452 [label="AVG_DOWNHOLE_PRESSURE <= 0.81\nmse = 0.0\nsamples = 204\nvalue = 0.07", fillcolor="#e5813912"] ;
451 -> 452 ;
453 [label="AVG_CHOKE_SIZE_P <= 0.43\nmse = 0.0\nsamples = 69\nvalue = 0.09", fillcolor="#e5813917"] ;
452 -> 453 ;
454 [label="AVG_DP_TUBING <= 0.82\nmse = 0.0\nsamples = 6\nvalue = 0.06", fillcolor="#e581390f"] ;
453 -> 454 ;
455 [label="AVG_CHOKE_SIZE_P <= 0.31\nmse = 0.0\nsamples = 4\nvalue = 0.07", fillcolor="#e5813912"] ;
454 -> 455 ;
456 [label="DP_CHOKE_SIZE <= 0.1\nmse = 0.0\nsamples = 3\nvalue = 0.07", fillcolor="#e5813912"] ;
455 -> 456 ;
457 [label="mse = 0.0\nsamples = 1\nvalue = 0.07", fillcolor="#e5813912"] ;
456 -> 457 ;
458 [label="AVG_DOWNHOLE_PRESSURE <= 0.8\nmse = 0.0\nsamples = 2\nvalue = 0.07", fillcolor="#e5813911"] ;
456 -> 458 ;
459 [label="mse = 0.0\nsamples = 1\nvalue = 0.07", fillcolor="#e5813911"] ;
458 -> 459 ;
460 [label="mse = -0.0\nsamples = 1\nvalue = 0.07", fillcolor="#e5813911"] ;
458 -> 460 ;
461 [label="mse = -0.0\nsamples = 1\nvalue = 0.08", fillcolor="#e5813914"] ;
455 -> 461 ;
462 [label="AVG_WHP_P <= 0.06\nmse = 0.0\nsamples = 2\nvalue = 0.04", fillcolor="#e5813909"] ;
454 -> 462 ;
463 [label="mse = 0.0\nsamples = 1\nvalue = 0.04", fillcolor="#e581390a"] ;
462 -> 463 ;
464 [label="mse = -0.0\nsamples = 1\nvalue = 0.03", fillcolor="#e5813908"] ;
462 -> 464 ;
465 [label="AVG_DP_TUBING <= 0.85\nmse = 0.0\nsamples = 63\nvalue = 0.09", fillcolor="#e5813918"] ;
453 -> 465 ;
466 [label="AVG_CHOKE_SIZE_P <= 0.88\nmse = 0.0\nsamples = 12\nvalue = 0.1", fillcolor="#e581391a"] ;
465 -> 466 ;
467 [label="AVG_DOWNHOLE_PRESSURE <= 0.8\nmse = 0.0\nsamples = 3\nvalue = 0.09", fillcolor="#e5813917"] ;
466 -> 467 ;
468 [label="DP_CHOKE_SIZE <= 0.05\nmse = 0.0\nsamples = 2\nvalue = 0.09", fillcolor="#e5813916"] ;
467 -> 468 ;
469 [label="mse = 0.0\nsamples = 1\nvalue = 0.09", fillcolor="#e5813916"] ;
468 -> 469 ;
470 [label="mse = -0.0\nsamples = 1\nvalue = 0.09", fillcolor="#e5813916"] ;
468 -> 470 ;
471 [label="mse = -0.0\nsamples = 1\nvalue = 0.1", fillcolor="#e5813918"] ;
467 -> 471 ;
472 [label="AVG_WHP_P <= 0.06\nmse = 0.0\nsamples = 9\nvalue = 0.11", fillcolor="#e581391b"] ;
466 -> 472 ;
473 [label="AVG_CHOKE_SIZE_P <= 0.97\nmse = 0.0\nsamples = 2\nvalue = 0.1", fillcolor="#e581391a"] ;
472 -> 473 ;
474 [label="mse = 0.0\nsamples = 1\nvalue = 0.1", fillcolor="#e581391a"] ;
473 -> 474 ;
475 [label="mse = -0.0\nsamples = 1\nvalue = 0.1", fillcolor="#e5813919"] ;
473 -> 475 ;
476 [label="AVG_DOWNHOLE_TEMPERATURE <= 0.87\nmse = 0.0\nsamples = 7\nvalue = 0.11", fillcolor="#e581391c"] ;
472 -> 476 ;
477 [label="mse = 0.0\nsamples = 5\nvalue = 0.11", fillcolor="#e581391b"] ;
476 -> 477 ;
478 [label="mse = 0.0\nsamples = 2\nvalue = 0.11", fillcolor="#e581391c"] ;
476 -> 478 ;
479 [label="AVG_DP_TUBING <= 0.86\nmse = 0.0\nsamples = 51\nvalue = 0.09", fillcolor="#e5813917"] ;
465 -> 479 ;
480 [label="AVG_CHOKE_SIZE_P <= 0.87\nmse = 0.0\nsamples = 41\nvalue = 0.09", fillcolor="#e5813917"] ;
479 -> 480 ;
481 [label="mse = 0.0\nsamples = 1\nvalue = 0.08", fillcolor="#e5813914"] ;
480 -> 481 ;
482 [label="AVG_WHP_P <= 0.05\nmse = 0.0\nsamples = 40\nvalue = 0.09", fillcolor="#e5813917"] ;
480 -> 482 ;
483 [label="AVG_DOWNHOLE_TEMPERATURE <= 0.87\nmse = 0.0\nsamples = 7\nvalue = 0.09", fillcolor="#e5813916"] ;
482 -> 483 ;
484 [label="AVG_DOWNHOLE_PRESSURE <= 0.8\nmse = 0.0\nsamples = 3\nvalue = 0.09", fillcolor="#e5813917"] ;
483 -> 484 ;
485 [label="AVG_DOWNHOLE_TEMPERATURE <= 0.87\nmse = 0.0\nsamples = 2\nvalue = 0.09", fillcolor="#e5813917"] ;
484 -> 485 ;
486 [label="mse = 0.0\nsamples = 1\nvalue = 0.09", fillcolor="#e5813917"] ;
485 -> 486 ;
487 [label="mse = 0.0\nsamples = 1\nvalue = 0.09", fillcolor="#e5813917"] ;
485 -> 487 ;
488 [label="mse = 0.0\nsamples = 1\nvalue = 0.09", fillcolor="#e5813917"] ;
484 -> 488 ;
489 [label="AVG_DOWNHOLE_PRESSURE <= 0.8\nmse = 0.0\nsamples = 4\nvalue = 0.09", fillcolor="#e5813916"] ;
483 -> 489 ;
490 [label="AVG_DOWNHOLE_TEMPERATURE <= 0.87\nmse = 0.0\nsamples = 3\nvalue = 0.09", fillcolor="#e5813916"] ;
489 -> 490 ;
491 [label="mse = 0.0\nsamples = 2\nvalue = 0.08", fillcolor="#e5813915"] ;
490 -> 491 ;
492 [label="mse = 0.0\nsamples = 1\nvalue = 0.09", fillcolor="#e5813916"] ;
490 -> 492 ;
493 [label="mse = 0.0\nsamples = 1\nvalue = 0.09", fillcolor="#e5813917"] ;
489 -> 493 ;
494 [label="AVG_WHP_P <= 0.06\nmse = 0.0\nsamples = 33\nvalue = 0.09", fillcolor="#e5813918"] ;
482 -> 494 ;
495 [label="AVG_WHP_P <= 0.06\nmse = 0.0\nsamples = 19\nvalue = 0.09", fillcolor="#e5813918"] ;
494 -> 495 ;
496 [label="AVG_DOWNHOLE_PRESSURE <= 0.81\nmse = 0.0\nsamples = 5\nvalue = 0.09", fillcolor="#e5813917"] ;
495 -> 496 ;
497 [label="AVG_DOWNHOLE_TEMPERATURE <= 0.87\nmse = 0.0\nsamples = 4\nvalue = 0.09", fillcolor="#e5813918"] ;
496 -> 497 ;
498 [label="AVG_DP_TUBING <= 0.86\nmse = 0.0\nsamples = 3\nvalue = 0.09", fillcolor="#e5813918"] ;
497 -> 498 ;
499 [label="mse = 0.0\nsamples = 2\nvalue = 0.09", fillcolor="#e5813918"] ;
498 -> 499 ;
500 [label="mse = 0.0\nsamples = 1\nvalue = 0.09", fillcolor="#e5813918"] ;
498 -> 500 ;
501 [label="mse = -0.0\nsamples = 1\nvalue = 0.09", fillcolor="#e5813917"] ;
497 -> 501 ;
502 [label="mse = -0.0\nsamples = 1\nvalue = 0.09", fillcolor="#e5813917"] ;
496 -> 502 ;
503 [label="DP_CHOKE_SIZE <= 0.02\nmse = 0.0\nsamples = 14\nvalue = 0.1", fillcolor="#e5813918"] ;
495 -> 503 ;
504 [label="AVG_DP_TUBING <= 0.86\nmse = 0.0\nsamples = 10\nvalue = 0.09", fillcolor="#e5813918"] ;
503 -> 504 ;
505 [label="DP_CHOKE_SIZE <= 0.02\nmse = 0.0\nsamples = 9\nvalue = 0.1", fillcolor="#e5813918"] ;
504 -> 505 ;
506 [label="AVG_DOWNHOLE_PRESSURE <= 0.8\nmse = 0.0\nsamples = 7\nvalue = 0.1", fillcolor="#e5813918"] ;
505 -> 506 ;
507 [label="mse = 0.0\nsamples = 1\nvalue = 0.09", fillcolor="#e5813918"] ;
506 -> 507 ;
508 [label="DP_CHOKE_SIZE <= 0.02\nmse = 0.0\nsamples = 6\nvalue = 0.1", fillcolor="#e5813918"] ;
506 -> 508 ;
509 [label="mse = 0.0\nsamples = 4\nvalue = 0.1", fillcolor="#e5813918"] ;
508 -> 509 ;
510 [label="mse = 0.0\nsamples = 2\nvalue = 0.1", fillcolor="#e5813918"] ;
508 -> 510 ;
511 [label="mse = 0.0\nsamples = 2\nvalue = 0.09", fillcolor="#e5813918"] ;
505 -> 511 ;
512 [label="mse = 0.0\nsamples = 1\nvalue = 0.09", fillcolor="#e5813917"] ;
504 -> 512 ;
513 [label="AVG_WHP_P <= 0.06\nmse = 0.0\nsamples = 4\nvalue = 0.1", fillcolor="#e5813919"] ;
503 -> 513 ;
514 [label="AVG_DP_TUBING <= 0.86\nmse = 0.0\nsamples = 3\nvalue = 0.1", fillcolor="#e5813919"] ;
513 -> 514 ;
515 [label="mse = 0.0\nsamples = 1\nvalue = 0.1", fillcolor="#e5813918"] ;
514 -> 515 ;
516 [label="AVG_WHP_P <= 0.06\nmse = 0.0\nsamples = 2\nvalue = 0.1", fillcolor="#e5813919"] ;
514 -> 516 ;
517 [label="mse = 0.0\nsamples = 1\nvalue = 0.1", fillcolor="#e5813919"] ;
516 -> 517 ;
518 [label="mse = 0.0\nsamples = 1\nvalue = 0.1", fillcolor="#e5813919"] ;
516 -> 518 ;
519 [label="mse = 0.0\nsamples = 1\nvalue = 0.1", fillcolor="#e5813918"] ;
513 -> 519 ;
520 [label="AVG_DOWNHOLE_PRESSURE <= 0.81\nmse = 0.0\nsamples = 14\nvalue = 0.09", fillcolor="#e5813917"] ;
494 -> 520 ;
521 [label="AVG_DOWNHOLE_PRESSURE <= 0.81\nmse = 0.0\nsamples = 10\nvalue = 0.09", fillcolor="#e5813917"] ;
520 -> 521 ;
522 [label="AVG_CHOKE_SIZE_P <= 0.91\nmse = 0.0\nsamples = 9\nvalue = 0.09", fillcolor="#e5813917"] ;
521 -> 522 ;
523 [label="mse = 0.0\nsamples = 1\nvalue = 0.1", fillcolor="#e5813918"] ;
522 -> 523 ;
524 [label="AVG_CHOKE_SIZE_P <= 0.92\nmse = 0.0\nsamples = 8\nvalue = 0.09", fillcolor="#e5813917"] ;
522 -> 524 ;
525 [label="mse = 0.0\nsamples = 1\nvalue = 0.09", fillcolor="#e5813916"] ;
524 -> 525 ;
526 [label="DP_CHOKE_SIZE <= 0.02\nmse = 0.0\nsamples = 7\nvalue = 0.09", fillcolor="#e5813917"] ;
524 -> 526 ;
527 [label="AVG_DOWNHOLE_TEMPERATURE <= 0.87\nmse = 0.0\nsamples = 3\nvalue = 0.09", fillcolor="#e5813917"] ;
526 -> 527 ;
528 [label="AVG_DP_TUBING <= 0.86\nmse = 0.0\nsamples = 2\nvalue = 0.09", fillcolor="#e5813917"] ;
527 -> 528 ;
529 [label="mse = 0.0\nsamples = 1\nvalue = 0.09", fillcolor="#e5813917"] ;
528 -> 529 ;
530 [label="mse = 0.0\nsamples = 1\nvalue = 0.09", fillcolor="#e5813917"] ;
528 -> 530 ;
531 [label="mse = -0.0\nsamples = 1\nvalue = 0.09", fillcolor="#e5813917"] ;
527 -> 531 ;
532 [label="AVG_WHP_P <= 0.06\nmse = 0.0\nsamples = 4\nvalue = 0.09", fillcolor="#e5813917"] ;
526 -> 532 ;
533 [label="mse = 0.0\nsamples = 1\nvalue = 0.09", fillcolor="#e5813918"] ;
532 -> 533 ;
534 [label="DP_CHOKE_SIZE <= 0.02\nmse = 0.0\nsamples = 3\nvalue = 0.09", fillcolor="#e5813917"] ;
532 -> 534 ;
535 [label="mse = 0.0\nsamples = 2\nvalue = 0.09", fillcolor="#e5813917"] ;
534 -> 535 ;
536 [label="mse = 0.0\nsamples = 1\nvalue = 0.09", fillcolor="#e5813917"] ;
534 -> 536 ;
537 [label="mse = 0.0\nsamples = 1\nvalue = 0.09", fillcolor="#e5813916"] ;
521 -> 537 ;
538 [label="AVG_WHP_P <= 0.06\nmse = 0.0\nsamples = 4\nvalue = 0.09", fillcolor="#e5813918"] ;
520 -> 538 ;
539 [label="AVG_DP_TUBING <= 0.86\nmse = 0.0\nsamples = 3\nvalue = 0.1", fillcolor="#e5813918"] ;
538 -> 539 ;
540 [label="mse = 0.0\nsamples = 1\nvalue = 0.1", fillcolor="#e5813919"] ;
539 -> 540 ;
541 [label="DP_CHOKE_SIZE <= 0.02\nmse = 0.0\nsamples = 2\nvalue = 0.1", fillcolor="#e5813918"] ;
539 -> 541 ;
542 [label="mse = 0.0\nsamples = 1\nvalue = 0.1", fillcolor="#e5813918"] ;
541 -> 542 ;
543 [label="mse = 0.0\nsamples = 1\nvalue = 0.09", fillcolor="#e5813918"] ;
541 -> 543 ;
544 [label="mse = -0.0\nsamples = 1\nvalue = 0.09", fillcolor="#e5813917"] ;
538 -> 544 ;
545 [label="AVG_DOWNHOLE_TEMPERATURE <= 0.87\nmse = 0.0\nsamples = 10\nvalue = 0.09", fillcolor="#e5813916"] ;
479 -> 545 ;
546 [label="DP_CHOKE_SIZE <= 0.02\nmse = 0.0\nsamples = 7\nvalue = 0.09", fillcolor="#e5813917"] ;
545 -> 546 ;
547 [label="mse = 0.0\nsamples = 2\nvalue = 0.09", fillcolor="#e5813918"] ;
546 -> 547 ;
548 [label="AVG_WHP_P <= 0.06\nmse = 0.0\nsamples = 5\nvalue = 0.09", fillcolor="#e5813917"] ;
546 -> 548 ;
549 [label="AVG_DP_TUBING <= 0.87\nmse = 0.0\nsamples = 4\nvalue = 0.09", fillcolor="#e5813917"] ;
548 -> 549 ;
550 [label="AVG_DP_TUBING <= 0.87\nmse = 0.0\nsamples = 2\nvalue = 0.09", fillcolor="#e5813917"] ;
549 -> 550 ;
551 [label="mse = 0.0\nsamples = 1\nvalue = 0.09", fillcolor="#e5813917"] ;
550 -> 551 ;
552 [label="mse = 0.0\nsamples = 1\nvalue = 0.09", fillcolor="#e5813917"] ;
550 -> 552 ;
553 [label="DP_CHOKE_SIZE <= 0.02\nmse = 0.0\nsamples = 2\nvalue = 0.09", fillcolor="#e5813917"] ;
549 -> 553 ;
554 [label="mse = 0.0\nsamples = 1\nvalue = 0.09", fillcolor="#e5813916"] ;
553 -> 554 ;
555 [label="mse = 0.0\nsamples = 1\nvalue = 0.09", fillcolor="#e5813917"] ;
553 -> 555 ;
556 [label="mse = -0.0\nsamples = 1\nvalue = 0.09", fillcolor="#e5813916"] ;
548 -> 556 ;
557 [label="AVG_DP_TUBING <= 0.87\nmse = 0.0\nsamples = 3\nvalue = 0.08", fillcolor="#e5813914"] ;
545 -> 557 ;
558 [label="mse = 0.0\nsamples = 2\nvalue = 0.08", fillcolor="#e5813914"] ;
557 -> 558 ;
559 [label="mse = 0.0\nsamples = 1\nvalue = 0.08", fillcolor="#e5813915"] ;
557 -> 559 ;
560 [label="AVG_CHOKE_SIZE_P <= 0.35\nmse = 0.0\nsamples = 135\nvalue = 0.06", fillcolor="#e5813910"] ;
452 -> 560 ;
561 [label="AVG_DOWNHOLE_TEMPERATURE <= 0.89\nmse = 0.0\nsamples = 12\nvalue = 0.03", fillcolor="#e5813908"] ;
560 -> 561 ;
562 [label="DP_CHOKE_SIZE <= 0.05\nmse = 0.0\nsamples = 10\nvalue = 0.02", fillcolor="#e5813906"] ;
561 -> 562 ;
563 [label="AVG_WHP_P <= 0.07\nmse = 0.0\nsamples = 4\nvalue = 0.01", fillcolor="#e5813903"] ;
562 -> 563 ;
564 [label="AVG_DOWNHOLE_TEMPERATURE <= 0.87\nmse = 0.0\nsamples = 2\nvalue = 0.02", fillcolor="#e5813905"] ;
563 -> 564 ;
565 [label="mse = 0.0\nsamples = 1\nvalue = 0.02", fillcolor="#e5813904"] ;
564 -> 565 ;
566 [label="mse = 0.0\nsamples = 1\nvalue = 0.03", fillcolor="#e5813906"] ;
564 -> 566 ;
567 [label="AVG_CHOKE_SIZE_P <= 0.17\nmse = 0.0\nsamples = 2\nvalue = 0.01", fillcolor="#e5813902"] ;
563 -> 567 ;
568 [label="mse = 0.0\nsamples = 1\nvalue = 0.0", fillcolor="#e5813900"] ;
567 -> 568 ;
569 [label="mse = 0.0\nsamples = 1\nvalue = 0.01", fillcolor="#e5813903"] ;
567 -> 569 ;
570 [label="AVG_DOWNHOLE_PRESSURE <= 0.85\nmse = 0.0\nsamples = 6\nvalue = 0.03", fillcolor="#e5813908"] ;
562 -> 570 ;
571 [label="AVG_CHOKE_SIZE_P <= 0.09\nmse = 0.0\nsamples = 4\nvalue = 0.04", fillcolor="#e581390a"] ;
570 -> 571 ;
572 [label="mse = 0.0\nsamples = 1\nvalue = 0.03", fillcolor="#e5813909"] ;
571 -> 572 ;
573 [label="AVG_DOWNHOLE_PRESSURE <= 0.84\nmse = 0.0\nsamples = 3\nvalue = 0.04", fillcolor="#e581390a"] ;
571 -> 573 ;
574 [label="DP_CHOKE_SIZE <= 0.09\nmse = 0.0\nsamples = 2\nvalue = 0.04", fillcolor="#e581390a"] ;
573 -> 574 ;
575 [label="mse = 0.0\nsamples = 1\nvalue = 0.04", fillcolor="#e581390a"] ;
574 -> 575 ;
576 [label="mse = 0.0\nsamples = 1\nvalue = 0.04", fillcolor="#e581390a"] ;
574 -> 576 ;
577 [label="mse = -0.0\nsamples = 1\nvalue = 0.04", fillcolor="#e5813909"] ;
573 -> 577 ;
578 [label="AVG_CHOKE_SIZE_P <= 0.16\nmse = 0.0\nsamples = 2\nvalue = 0.02", fillcolor="#e5813905"] ;
570 -> 578 ;
579 [label="mse = 0.0\nsamples = 1\nvalue = 0.02", fillcolor="#e5813904"] ;
578 -> 579 ;
580 [label="mse = -0.0\nsamples = 1\nvalue = 0.02", fillcolor="#e5813905"] ;
578 -> 580 ;
581 [label="AVG_WHP_P <= 0.23\nmse = 0.0\nsamples = 2\nvalue = 0.07", fillcolor="#e5813912"] ;
561 -> 581 ;
582 [label="mse = 0.0\nsamples = 1\nvalue = 0.06", fillcolor="#e581390f"] ;
581 -> 582 ;
583 [label="mse = 0.0\nsamples = 1\nvalue = 0.08", fillcolor="#e5813915"] ;
581 -> 583 ;
584 [label="AVG_DOWNHOLE_PRESSURE <= 0.84\nmse = 0.0\nsamples = 123\nvalue = 0.07", fillcolor="#e5813911"] ;
560 -> 584 ;
585 [label="AVG_CHOKE_SIZE_P <= 0.64\nmse = 0.0\nsamples = 49\nvalue = 0.08", fillcolor="#e5813914"] ;
584 -> 585 ;
586 [label="DP_CHOKE_SIZE <= 0.05\nmse = 0.0\nsamples = 3\nvalue = 0.04", fillcolor="#e581390b"] ;
585 -> 586 ;
587 [label="AVG_DP_TUBING <= 0.87\nmse = 0.0\nsamples = 2\nvalue = 0.04", fillcolor="#e581390a"] ;
586 -> 587 ;
588 [label="mse = 0.0\nsamples = 1\nvalue = 0.04", fillcolor="#e5813909"] ;
587 -> 588 ;
589 [label="mse = 0.0\nsamples = 1\nvalue = 0.04", fillcolor="#e581390a"] ;
587 -> 589 ;
590 [label="mse = 0.0\nsamples = 1\nvalue = 0.05", fillcolor="#e581390d"] ;
586 -> 590 ;
591 [label="AVG_WHP_P <= 0.05\nmse = 0.0\nsamples = 46\nvalue = 0.08", fillcolor="#e5813914"] ;
585 -> 591 ;
592 [label="DP_CHOKE_SIZE <= 0.01\nmse = 0.0\nsamples = 11\nvalue = 0.07", fillcolor="#e5813911"] ;
591 -> 592 ;
593 [label="AVG_DOWNHOLE_TEMPERATURE <= 0.86\nmse = 0.0\nsamples = 9\nvalue = 0.06", fillcolor="#e5813910"] ;
592 -> 593 ;
594 [label="mse = 0.0\nsamples = 1\nvalue = 0.06", fillcolor="#e581390e"] ;
593 -> 594 ;
595 [label="AVG_DOWNHOLE_TEMPERATURE <= 0.87\nmse = 0.0\nsamples = 8\nvalue = 0.07", fillcolor="#e5813911"] ;
593 -> 595 ;
596 [label="mse = 0.0\nsamples = 1\nvalue = 0.07", fillcolor="#e5813912"] ;
595 -> 596 ;
597 [label="AVG_DOWNHOLE_PRESSURE <= 0.83\nmse = 0.0\nsamples = 7\nvalue = 0.06", fillcolor="#e5813910"] ;
595 -> 597 ;
598 [label="AVG_DOWNHOLE_PRESSURE <= 0.82\nmse = 0.0\nsamples = 5\nvalue = 0.06", fillcolor="#e5813910"] ;
597 -> 598 ;
599 [label="mse = 0.0\nsamples = 2\nvalue = 0.06", fillcolor="#e5813910"] ;
598 -> 599 ;
600 [label="mse = 0.0\nsamples = 3\nvalue = 0.06", fillcolor="#e5813910"] ;
598 -> 600 ;
601 [label="AVG_CHOKE_SIZE_P <= 0.99\nmse = 0.0\nsamples = 2\nvalue = 0.07", fillcolor="#e5813911"] ;
597 -> 601 ;
602 [label="mse = 0.0\nsamples = 1\nvalue = 0.07", fillcolor="#e5813911"] ;
601 -> 602 ;
603 [label="mse = -0.0\nsamples = 1\nvalue = 0.07", fillcolor="#e5813911"] ;
601 -> 603 ;
604 [label="AVG_WHP_P <= 0.05\nmse = 0.0\nsamples = 2\nvalue = 0.08", fillcolor="#e5813914"] ;
592 -> 604 ;
605 [label="mse = 0.0\nsamples = 1\nvalue = 0.08", fillcolor="#e5813914"] ;
604 -> 605 ;
606 [label="mse = -0.0\nsamples = 1\nvalue = 0.08", fillcolor="#e5813913"] ;
604 -> 606 ;
607 [label="AVG_WHP_P <= 0.05\nmse = 0.0\nsamples = 35\nvalue = 0.08", fillcolor="#e5813915"] ;
591 -> 607 ;
608 [label="AVG_DOWNHOLE_PRESSURE <= 0.83\nmse = 0.0\nsamples = 2\nvalue = 0.1", fillcolor="#e5813919"] ;
607 -> 608 ;
609 [label="mse = 0.0\nsamples = 1\nvalue = 0.09", fillcolor="#e5813916"] ;
608 -> 609 ;
610 [label="mse = 0.0\nsamples = 1\nvalue = 0.11", fillcolor="#e581391c"] ;
608 -> 610 ;
611 [label="DP_CHOKE_SIZE <= 0.06\nmse = 0.0\nsamples = 33\nvalue = 0.08", fillcolor="#e5813915"] ;
607 -> 611 ;
612 [label="AVG_WHP_P <= 0.07\nmse = 0.0\nsamples = 32\nvalue = 0.08", fillcolor="#e5813915"] ;
611 -> 612 ;
613 [label="DP_CHOKE_SIZE <= 0.02\nmse = 0.0\nsamples = 30\nvalue = 0.08", fillcolor="#e5813915"] ;
612 -> 613 ;
614 [label="AVG_CHOKE_SIZE_P <= 0.95\nmse = 0.0\nsamples = 11\nvalue = 0.08", fillcolor="#e5813914"] ;
613 -> 614 ;
615 [label="mse = 0.0\nsamples = 1\nvalue = 0.07", fillcolor="#e5813912"] ;
614 -> 615 ;
616 [label="AVG_DOWNHOLE_TEMPERATURE <= 0.87\nmse = 0.0\nsamples = 10\nvalue = 0.08", fillcolor="#e5813914"] ;
614 -> 616 ;
617 [label="AVG_WHP_P <= 0.06\nmse = 0.0\nsamples = 9\nvalue = 0.08", fillcolor="#e5813914"] ;
616 -> 617 ;
618 [label="AVG_DOWNHOLE_TEMPERATURE <= 0.87\nmse = 0.0\nsamples = 7\nvalue = 0.08", fillcolor="#e5813914"] ;
617 -> 618 ;
619 [label="mse = 0.0\nsamples = 1\nvalue = 0.08", fillcolor="#e5813914"] ;
618 -> 619 ;
620 [label="DP_CHOKE_SIZE <= 0.01\nmse = 0.0\nsamples = 6\nvalue = 0.08", fillcolor="#e5813914"] ;
618 -> 620 ;
621 [label="AVG_DOWNHOLE_TEMPERATURE <= 0.87\nmse = 0.0\nsamples = 4\nvalue = 0.08", fillcolor="#e5813914"] ;
620 -> 621 ;
622 [label="mse = 0.0\nsamples = 1\nvalue = 0.08", fillcolor="#e5813914"] ;
621 -> 622 ;
623 [label="DP_CHOKE_SIZE <= 0.01\nmse = 0.0\nsamples = 3\nvalue = 0.08", fillcolor="#e5813914"] ;
621 -> 623 ;
624 [label="mse = 0.0\nsamples = 2\nvalue = 0.08", fillcolor="#e5813914"] ;
623 -> 624 ;
625 [label="mse = 0.0\nsamples = 1\nvalue = 0.08", fillcolor="#e5813914"] ;
623 -> 625 ;
626 [label="mse = 0.0\nsamples = 2\nvalue = 0.08", fillcolor="#e5813914"] ;
620 -> 626 ;
627 [label="mse = 0.0\nsamples = 2\nvalue = 0.08", fillcolor="#e5813914"] ;
617 -> 627 ;
628 [label="mse = 0.0\nsamples = 1\nvalue = 0.09", fillcolor="#e5813916"] ;
616 -> 628 ;
629 [label="AVG_DP_TUBING <= 0.89\nmse = 0.0\nsamples = 19\nvalue = 0.08", fillcolor="#e5813916"] ;
613 -> 629 ;
630 [label="DP_CHOKE_SIZE <= 0.02\nmse = 0.0\nsamples = 16\nvalue = 0.09", fillcolor="#e5813916"] ;
629 -> 630 ;
631 [label="AVG_DP_TUBING <= 0.88\nmse = 0.0\nsamples = 14\nvalue = 0.09", fillcolor="#e5813916"] ;
630 -> 631 ;
632 [label="mse = 0.0\nsamples = 1\nvalue = 0.09", fillcolor="#e5813917"] ;
631 -> 632 ;
633 [label="AVG_WHP_P <= 0.05\nmse = 0.0\nsamples = 13\nvalue = 0.09", fillcolor="#e5813916"] ;
631 -> 633 ;
634 [label="AVG_DOWNHOLE_TEMPERATURE <= 0.87\nmse = 0.0\nsamples = 2\nvalue = 0.09", fillcolor="#e5813916"] ;
633 -> 634 ;
635 [label="mse = 0.0\nsamples = 1\nvalue = 0.09", fillcolor="#e5813916"] ;
634 -> 635 ;
636 [label="mse = -0.0\nsamples = 1\nvalue = 0.09", fillcolor="#e5813916"] ;
634 -> 636 ;
637 [label="AVG_WHP_P <= 0.06\nmse = 0.0\nsamples = 11\nvalue = 0.09", fillcolor="#e5813916"] ;
633 -> 637 ;
638 [label="DP_CHOKE_SIZE <= 0.02\nmse = 0.0\nsamples = 9\nvalue = 0.09", fillcolor="#e5813916"] ;
637 -> 638 ;
639 [label="AVG_WHP_P <= 0.06\nmse = 0.0\nsamples = 7\nvalue = 0.09", fillcolor="#e5813916"] ;
638 -> 639 ;
640 [label="DP_CHOKE_SIZE <= 0.02\nmse = 0.0\nsamples = 5\nvalue = 0.09", fillcolor="#e5813916"] ;
639 -> 640 ;
641 [label="mse = 0.0\nsamples = 2\nvalue = 0.09", fillcolor="#e5813916"] ;
640 -> 641 ;
642 [label="mse = 0.0\nsamples = 3\nvalue = 0.09", fillcolor="#e5813916"] ;
640 -> 642 ;
643 [label="mse = 0.0\nsamples = 2\nvalue = 0.09", fillcolor="#e5813916"] ;
639 -> 643 ;
644 [label="mse = 0.0\nsamples = 2\nvalue = 0.09", fillcolor="#e5813916"] ;
638 -> 644 ;
645 [label="mse = 0.0\nsamples = 2\nvalue = 0.09", fillcolor="#e5813916"] ;
637 -> 645 ;
646 [label="AVG_DOWNHOLE_TEMPERATURE <= 0.87\nmse = 0.0\nsamples = 2\nvalue = 0.08", fillcolor="#e5813914"] ;
630 -> 646 ;
647 [label="mse = 0.0\nsamples = 1\nvalue = 0.08", fillcolor="#e5813915"] ;
646 -> 647 ;
648 [label="mse = 0.0\nsamples = 1\nvalue = 0.08", fillcolor="#e5813913"] ;
646 -> 648 ;
649 [label="DP_CHOKE_SIZE <= 0.02\nmse = 0.0\nsamples = 3\nvalue = 0.08", fillcolor="#e5813914"] ;
629 -> 649 ;
650 [label="mse = 0.0\nsamples = 2\nvalue = 0.08", fillcolor="#e5813914"] ;
649 -> 650 ;
651 [label="mse = -0.0\nsamples = 1\nvalue = 0.08", fillcolor="#e5813915"] ;
649 -> 651 ;
652 [label="AVG_CHOKE_SIZE_P <= 0.88\nmse = 0.0\nsamples = 2\nvalue = 0.07", fillcolor="#e5813911"] ;
612 -> 652 ;
653 [label="mse = 0.0\nsamples = 1\nvalue = 0.07", fillcolor="#e5813912"] ;
652 -> 653 ;
654 [label="mse = -0.0\nsamples = 1\nvalue = 0.07", fillcolor="#e5813910"] ;
652 -> 654 ;
655 [label="mse = -0.0\nsamples = 1\nvalue = 0.1", fillcolor="#e5813919"] ;
611 -> 655 ;
656 [label="DP_CHOKE_SIZE <= 0.07\nmse = 0.0\nsamples = 74\nvalue = 0.06", fillcolor="#e581390f"] ;
584 -> 656 ;
657 [label="AVG_DOWNHOLE_TEMPERATURE <= 0.87\nmse = 0.0\nsamples = 73\nvalue = 0.06", fillcolor="#e581390e"] ;
656 -> 657 ;
658 [label="AVG_DOWNHOLE_PRESSURE <= 0.86\nmse = 0.0\nsamples = 16\nvalue = 0.04", fillcolor="#e581390b"] ;
657 -> 658 ;
659 [label="AVG_WHP_P <= 0.07\nmse = 0.0\nsamples = 5\nvalue = 0.05", fillcolor="#e581390c"] ;
658 -> 659 ;
660 [label="AVG_WHP_P <= 0.04\nmse = 0.0\nsamples = 4\nvalue = 0.05", fillcolor="#e581390d"] ;
659 -> 660 ;
661 [label="AVG_WHP_P <= 0.04\nmse = 0.0\nsamples = 3\nvalue = 0.05", fillcolor="#e581390c"] ;
660 -> 661 ;
662 [label="mse = 0.0\nsamples = 1\nvalue = 0.05", fillcolor="#e581390d"] ;
661 -> 662 ;
663 [label="mse = 0.0\nsamples = 2\nvalue = 0.05", fillcolor="#e581390c"] ;
661 -> 663 ;
664 [label="mse = 0.0\nsamples = 1\nvalue = 0.06", fillcolor="#e581390f"] ;
660 -> 664 ;
665 [label="mse = -0.0\nsamples = 1\nvalue = 0.04", fillcolor="#e5813909"] ;
659 -> 665 ;
666 [label="AVG_DOWNHOLE_TEMPERATURE <= 0.86\nmse = 0.0\nsamples = 11\nvalue = 0.04", fillcolor="#e581390b"] ;
658 -> 666 ;
667 [label="mse = 0.0\nsamples = 1\nvalue = 0.05", fillcolor="#e581390c"] ;
666 -> 667 ;
668 [label="AVG_DP_TUBING <= 0.93\nmse = 0.0\nsamples = 10\nvalue = 0.04", fillcolor="#e581390b"] ;
666 -> 668 ;
669 [label="AVG_DP_TUBING <= 0.92\nmse = 0.0\nsamples = 8\nvalue = 0.04", fillcolor="#e581390b"] ;
668 -> 669 ;
670 [label="mse = 0.0\nsamples = 1\nvalue = 0.04", fillcolor="#e581390a"] ;
669 -> 670 ;
671 [label="DP_CHOKE_SIZE <= 0.01\nmse = 0.0\nsamples = 7\nvalue = 0.04", fillcolor="#e581390b"] ;
669 -> 671 ;
672 [label="mse = 0.0\nsamples = 5\nvalue = 0.04", fillcolor="#e581390b"] ;
671 -> 672 ;
673 [label="mse = 0.0\nsamples = 2\nvalue = 0.04", fillcolor="#e581390b"] ;
671 -> 673 ;
674 [label="AVG_DOWNHOLE_PRESSURE <= 0.86\nmse = 0.0\nsamples = 2\nvalue = 0.04", fillcolor="#e581390b"] ;
668 -> 674 ;
675 [label="mse = 0.0\nsamples = 1\nvalue = 0.05", fillcolor="#e581390b"] ;
674 -> 675 ;
676 [label="mse = 0.0\nsamples = 1\nvalue = 0.04", fillcolor="#e581390b"] ;
674 -> 676 ;
677 [label="AVG_CHOKE_SIZE_P <= 0.74\nmse = 0.0\nsamples = 57\nvalue = 0.06", fillcolor="#e581390f"] ;
657 -> 677 ;
678 [label="AVG_DOWNHOLE_TEMPERATURE <= 0.87\nmse = 0.0\nsamples = 8\nvalue = 0.05", fillcolor="#e581390c"] ;
677 -> 678 ;
679 [label="AVG_DP_TUBING <= 0.9\nmse = 0.0\nsamples = 4\nvalue = 0.06", fillcolor="#e581390e"] ;
678 -> 679 ;
680 [label="AVG_WHP_P <= 0.11\nmse = 0.0\nsamples = 3\nvalue = 0.06", fillcolor="#e5813910"] ;
679 -> 680 ;
681 [label="DP_CHOKE_SIZE <= 0.05\nmse = 0.0\nsamples = 2\nvalue = 0.06", fillcolor="#e581390f"] ;
680 -> 681 ;
682 [label="mse = 0.0\nsamples = 1\nvalue = 0.06", fillcolor="#e581390f"] ;
681 -> 682 ;
683 [label="mse = -0.0\nsamples = 1\nvalue = 0.06", fillcolor="#e581390f"] ;
681 -> 683 ;
684 [label="mse = 0.0\nsamples = 1\nvalue = 0.07", fillcolor="#e5813913"] ;
680 -> 684 ;
685 [label="mse = 0.0\nsamples = 1\nvalue = 0.03", fillcolor="#e5813909"] ;
679 -> 685 ;
686 [label="AVG_CHOKE_SIZE_P <= 0.6\nmse = 0.0\nsamples = 4\nvalue = 0.03", fillcolor="#e5813909"] ;
678 -> 686 ;
687 [label="AVG_DOWNHOLE_PRESSURE <= 0.85\nmse = 0.0\nsamples = 3\nvalue = 0.03", fillcolor="#e5813908"] ;
686 -> 687 ;
688 [label="mse = 0.0\nsamples = 1\nvalue = 0.04", fillcolor="#e5813909"] ;
687 -> 688 ;
689 [label="mse = 0.0\nsamples = 2\nvalue = 0.03", fillcolor="#e5813907"] ;
687 -> 689 ;
690 [label="mse = -0.0\nsamples = 1\nvalue = 0.04", fillcolor="#e581390a"] ;
686 -> 690 ;
691 [label="AVG_DOWNHOLE_TEMPERATURE <= 0.87\nmse = 0.0\nsamples = 49\nvalue = 0.06", fillcolor="#e5813910"] ;
677 -> 691 ;
692 [label="AVG_WHP_P <= 0.05\nmse = 0.0\nsamples = 8\nvalue = 0.05", fillcolor="#e581390e"] ;
691 -> 692 ;
693 [label="mse = 0.0\nsamples = 4\nvalue = 0.05", fillcolor="#e581390c"] ;
692 -> 693 ;
694 [label="AVG_DOWNHOLE_PRESSURE <= 0.86\nmse = 0.0\nsamples = 4\nvalue = 0.06", fillcolor="#e581390f"] ;
692 -> 694 ;
695 [label="mse = 0.0\nsamples = 1\nvalue = 0.06", fillcolor="#e581390f"] ;
694 -> 695 ;
696 [label="mse = 0.0\nsamples = 3\nvalue = 0.06", fillcolor="#e5813910"] ;
694 -> 696 ;
697 [label="AVG_WHP_P <= 0.05\nmse = 0.0\nsamples = 41\nvalue = 0.06", fillcolor="#e5813910"] ;
691 -> 697 ;
698 [label="AVG_DOWNHOLE_TEMPERATURE <= 0.87\nmse = 0.0\nsamples = 31\nvalue = 0.06", fillcolor="#e5813910"] ;
697 -> 698 ;
699 [label="AVG_CHOKE_SIZE_P <= 0.95\nmse = 0.0\nsamples = 16\nvalue = 0.06", fillcolor="#e5813910"] ;
698 -> 699 ;
700 [label="mse = 0.0\nsamples = 1\nvalue = 0.06", fillcolor="#e581390e"] ;
699 -> 700 ;
701 [label="DP_CHOKE_SIZE <= 0.01\nmse = 0.0\nsamples = 15\nvalue = 0.06", fillcolor="#e5813910"] ;
699 -> 701 ;
702 [label="AVG_DOWNHOLE_TEMPERATURE <= 0.87\nmse = 0.0\nsamples = 14\nvalue = 0.06", fillcolor="#e5813910"] ;
701 -> 702 ;
703 [label="AVG_DOWNHOLE_TEMPERATURE <= 0.87\nmse = 0.0\nsamples = 9\nvalue = 0.06", fillcolor="#e581390f"] ;
702 -> 703 ;
704 [label="AVG_DP_TUBING <= 0.92\nmse = 0.0\nsamples = 6\nvalue = 0.06", fillcolor="#e5813910"] ;
703 -> 704 ;
705 [label="mse = 0.0\nsamples = 2\nvalue = 0.06", fillcolor="#e581390f"] ;
704 -> 705 ;
706 [label="AVG_DOWNHOLE_PRESSURE <= 0.86\nmse = 0.0\nsamples = 4\nvalue = 0.06", fillcolor="#e5813910"] ;
704 -> 706 ;
707 [label="mse = 0.0\nsamples = 3\nvalue = 0.06", fillcolor="#e5813910"] ;
706 -> 707 ;
708 [label="mse = -0.0\nsamples = 1\nvalue = 0.06", fillcolor="#e581390f"] ;
706 -> 708 ;
709 [label="mse = 0.0\nsamples = 3\nvalue = 0.06", fillcolor="#e581390f"] ;
703 -> 709 ;
710 [label="AVG_WHP_P <= 0.05\nmse = 0.0\nsamples = 5\nvalue = 0.06", fillcolor="#e5813910"] ;
702 -> 710 ;
711 [label="mse = 0.0\nsamples = 2\nvalue = 0.06", fillcolor="#e5813910"] ;
710 -> 711 ;
712 [label="AVG_DOWNHOLE_PRESSURE <= 0.86\nmse = 0.0\nsamples = 3\nvalue = 0.06", fillcolor="#e5813910"] ;
710 -> 712 ;
713 [label="mse = 0.0\nsamples = 2\nvalue = 0.06", fillcolor="#e5813910"] ;
712 -> 713 ;
714 [label="mse = 0.0\nsamples = 1\nvalue = 0.06", fillcolor="#e5813910"] ;
712 -> 714 ;
715 [label="mse = -0.0\nsamples = 1\nvalue = 0.07", fillcolor="#e5813911"] ;
701 -> 715 ;
716 [label="AVG_DOWNHOLE_TEMPERATURE <= 0.87\nmse = 0.0\nsamples = 15\nvalue = 0.07", fillcolor="#e5813911"] ;
698 -> 716 ;
717 [label="AVG_DP_TUBING <= 0.92\nmse = 0.0\nsamples = 8\nvalue = 0.07", fillcolor="#e5813912"] ;
716 -> 717 ;
718 [label="AVG_DOWNHOLE_TEMPERATURE <= 0.87\nmse = 0.0\nsamples = 3\nvalue = 0.07", fillcolor="#e5813912"] ;
717 -> 718 ;
719 [label="mse = 0.0\nsamples = 2\nvalue = 0.07", fillcolor="#e5813912"] ;
718 -> 719 ;
720 [label="mse = 0.0\nsamples = 1\nvalue = 0.07", fillcolor="#e5813912"] ;
718 -> 720 ;
721 [label="AVG_WHP_P <= 0.05\nmse = 0.0\nsamples = 5\nvalue = 0.07", fillcolor="#e5813912"] ;
717 -> 721 ;
722 [label="AVG_DP_TUBING <= 0.92\nmse = 0.0\nsamples = 3\nvalue = 0.07", fillcolor="#e5813911"] ;
721 -> 722 ;
723 [label="mse = 0.0\nsamples = 2\nvalue = 0.07", fillcolor="#e5813912"] ;
722 -> 723 ;
724 [label="mse = -0.0\nsamples = 1\nvalue = 0.07", fillcolor="#e5813911"] ;
722 -> 724 ;
725 [label="mse = 0.0\nsamples = 2\nvalue = 0.07", fillcolor="#e5813912"] ;
721 -> 725 ;
726 [label="DP_CHOKE_SIZE <= 0.01\nmse = 0.0\nsamples = 7\nvalue = 0.06", fillcolor="#e5813910"] ;
716 -> 726 ;
727 [label="mse = 0.0\nsamples = 6\nvalue = 0.06", fillcolor="#e5813910"] ;
726 -> 727 ;
728 [label="mse = -0.0\nsamples = 1\nvalue = 0.07", fillcolor="#e5813911"] ;
726 -> 728 ;
729 [label="AVG_DP_TUBING <= 0.92\nmse = 0.0\nsamples = 10\nvalue = 0.06", fillcolor="#e581390f"] ;
697 -> 729 ;
730 [label="AVG_DP_TUBING <= 0.92\nmse = 0.0\nsamples = 9\nvalue = 0.06", fillcolor="#e581390f"] ;
729 -> 730 ;
731 [label="AVG_DP_TUBING <= 0.91\nmse = 0.0\nsamples = 8\nvalue = 0.06", fillcolor="#e581390f"] ;
730 -> 731 ;
732 [label="DP_CHOKE_SIZE <= 0.04\nmse = 0.0\nsamples = 7\nvalue = 0.06", fillcolor="#e581390f"] ;
731 -> 732 ;
733 [label="DP_CHOKE_SIZE <= 0.01\nmse = 0.0\nsamples = 6\nvalue = 0.06", fillcolor="#e581390f"] ;
732 -> 733 ;
734 [label="mse = 0.0\nsamples = 3\nvalue = 0.06", fillcolor="#e581390f"] ;
733 -> 734 ;
735 [label="mse = 0.0\nsamples = 3\nvalue = 0.06", fillcolor="#e581390f"] ;
733 -> 735 ;
736 [label="mse = 0.0\nsamples = 1\nvalue = 0.06", fillcolor="#e581390e"] ;
732 -> 736 ;
737 [label="mse = 0.0\nsamples = 1\nvalue = 0.06", fillcolor="#e5813910"] ;
731 -> 737 ;
738 [label="mse = 0.0\nsamples = 1\nvalue = 0.05", fillcolor="#e581390d"] ;
730 -> 738 ;
739 [label="mse = 0.0\nsamples = 1\nvalue = 0.07", fillcolor="#e5813911"] ;
729 -> 739 ;
740 [label="mse = 0.0\nsamples = 1\nvalue = 0.16", fillcolor="#e5813929"] ;
656 -> 740 ;
741 [label="AVG_DP_TUBING <= 0.97\nmse = 0.0\nsamples = 457\nvalue = 0.02", fillcolor="#e5813905"] ;
451 -> 741 ;
742 [label="AVG_DP_TUBING <= 0.94\nmse = 0.0\nsamples = 152\nvalue = 0.04", fillcolor="#e5813909"] ;
741 -> 742 ;
743 [label="DP_CHOKE_SIZE <= 0.01\nmse = 0.0\nsamples = 81\nvalue = 0.04", fillcolor="#e581390a"] ;
742 -> 743 ;
744 [label="AVG_DP_TUBING <= 0.93\nmse = 0.0\nsamples = 11\nvalue = 0.03", fillcolor="#e5813909"] ;
743 -> 744 ;
745 [label="AVG_DP_TUBING <= 0.93\nmse = 0.0\nsamples = 5\nvalue = 0.04", fillcolor="#e581390a"] ;
744 -> 745 ;
746 [label="AVG_DOWNHOLE_PRESSURE <= 0.86\nmse = 0.0\nsamples = 4\nvalue = 0.04", fillcolor="#e581390a"] ;
745 -> 746 ;
747 [label="mse = 0.0\nsamples = 2\nvalue = 0.04", fillcolor="#e581390a"] ;
746 -> 747 ;
748 [label="mse = 0.0\nsamples = 2\nvalue = 0.04", fillcolor="#e581390b"] ;
746 -> 748 ;
749 [label="mse = 0.0\nsamples = 1\nvalue = 0.04", fillcolor="#e581390a"] ;
745 -> 749 ;
750 [label="AVG_DOWNHOLE_PRESSURE <= 0.86\nmse = 0.0\nsamples = 6\nvalue = 0.03", fillcolor="#e5813908"] ;
744 -> 750 ;
751 [label="mse = 0.0\nsamples = 1\nvalue = 0.02", fillcolor="#e5813905"] ;
750 -> 751 ;
752 [label="AVG_DOWNHOLE_PRESSURE <= 0.87\nmse = 0.0\nsamples = 5\nvalue = 0.03", fillcolor="#e5813908"] ;
750 -> 752 ;
753 [label="AVG_DP_TUBING <= 0.93\nmse = 0.0\nsamples = 2\nvalue = 0.04", fillcolor="#e5813909"] ;
752 -> 753 ;
754 [label="mse = 0.0\nsamples = 1\nvalue = 0.04", fillcolor="#e581390a"] ;
753 -> 754 ;
755 [label="mse = 0.0\nsamples = 1\nvalue = 0.03", fillcolor="#e5813909"] ;
753 -> 755 ;
756 [label="AVG_DOWNHOLE_TEMPERATURE <= 0.86\nmse = 0.0\nsamples = 3\nvalue = 0.03", fillcolor="#e5813907"] ;
752 -> 756 ;
757 [label="AVG_DP_TUBING <= 0.93\nmse = 0.0\nsamples = 2\nvalue = 0.03", fillcolor="#e5813908"] ;
756 -> 757 ;
758 [label="mse = 0.0\nsamples = 1\nvalue = 0.03", fillcolor="#e5813907"] ;
757 -> 758 ;
759 [label="mse = 0.0\nsamples = 1\nvalue = 0.03", fillcolor="#e5813908"] ;
757 -> 759 ;
760 [label="mse = 0.0\nsamples = 1\nvalue = 0.03", fillcolor="#e5813907"] ;
756 -> 760 ;
761 [label="AVG_DOWNHOLE_TEMPERATURE <= 0.86\nmse = 0.0\nsamples = 70\nvalue = 0.04", fillcolor="#e581390b"] ;
743 -> 761 ;
762 [label="AVG_DOWNHOLE_TEMPERATURE <= 0.86\nmse = 0.0\nsamples = 10\nvalue = 0.05", fillcolor="#e581390c"] ;
761 -> 762 ;
763 [label="AVG_DP_TUBING <= 0.93\nmse = 0.0\nsamples = 9\nvalue = 0.04", fillcolor="#e581390b"] ;
762 -> 763 ;
764 [label="AVG_DOWNHOLE_PRESSURE <= 0.87\nmse = 0.0\nsamples = 3\nvalue = 0.05", fillcolor="#e581390d"] ;
763 -> 764 ;
765 [label="DP_CHOKE_SIZE <= 0.01\nmse = 0.0\nsamples = 2\nvalue = 0.04", fillcolor="#e581390b"] ;
764 -> 765 ;
766 [label="mse = 0.0\nsamples = 1\nvalue = 0.05", fillcolor="#e581390c"] ;
765 -> 766 ;
767 [label="mse = -0.0\nsamples = 1\nvalue = 0.04", fillcolor="#e581390b"] ;
765 -> 767 ;
768 [label="mse = -0.0\nsamples = 1\nvalue = 0.07", fillcolor="#e5813912"] ;
764 -> 768 ;
769 [label="AVG_CHOKE_SIZE_P <= 0.63\nmse = 0.0\nsamples = 6\nvalue = 0.04", fillcolor="#e581390a"] ;
763 -> 769 ;
770 [label="mse = 0.0\nsamples = 1\nvalue = 0.05", fillcolor="#e581390e"] ;
769 -> 770 ;
771 [label="AVG_DOWNHOLE_TEMPERATURE <= 0.86\nmse = 0.0\nsamples = 5\nvalue = 0.04", fillcolor="#e581390a"] ;
769 -> 771 ;
772 [label="AVG_CHOKE_SIZE_P <= 0.64\nmse = 0.0\nsamples = 3\nvalue = 0.03", fillcolor="#e5813909"] ;
771 -> 772 ;
773 [label="mse = 0.0\nsamples = 1\nvalue = 0.04", fillcolor="#e581390a"] ;
772 -> 773 ;
774 [label="AVG_DOWNHOLE_TEMPERATURE <= 0.85\nmse = 0.0\nsamples = 2\nvalue = 0.03", fillcolor="#e5813908"] ;
772 -> 774 ;
775 [label="mse = 0.0\nsamples = 1\nvalue = 0.03", fillcolor="#e5813908"] ;
774 -> 775 ;
776 [label="mse = -0.0\nsamples = 1\nvalue = 0.03", fillcolor="#e5813908"] ;
774 -> 776 ;
777 [label="AVG_DOWNHOLE_PRESSURE <= 0.87\nmse = 0.0\nsamples = 2\nvalue = 0.04", fillcolor="#e581390b"] ;
771 -> 777 ;
778 [label="mse = 0.0\nsamples = 1\nvalue = 0.05", fillcolor="#e581390c"] ;
777 -> 778 ;
779 [label="mse = -0.0\nsamples = 1\nvalue = 0.04", fillcolor="#e581390b"] ;
777 -> 779 ;
780 [label="mse = 0.0\nsamples = 1\nvalue = 0.07", fillcolor="#e5813912"] ;
762 -> 780 ;
781 [label="AVG_WHP_P <= 0.03\nmse = 0.0\nsamples = 60\nvalue = 0.04", fillcolor="#e581390b"] ;
761 -> 781 ;
782 [label="AVG_DOWNHOLE_TEMPERATURE <= 0.86\nmse = 0.0\nsamples = 8\nvalue = 0.05", fillcolor="#e581390c"] ;
781 -> 782 ;
783 [label="DP_CHOKE_SIZE <= 0.01\nmse = 0.0\nsamples = 7\nvalue = 0.05", fillcolor="#e581390c"] ;
782 -> 783 ;
784 [label="mse = 0.0\nsamples = 2\nvalue = 0.05", fillcolor="#e581390c"] ;
783 -> 784 ;
785 [label="AVG_DOWNHOLE_PRESSURE <= 0.85\nmse = 0.0\nsamples = 5\nvalue = 0.05", fillcolor="#e581390c"] ;
783 -> 785 ;
786 [label="AVG_WHP_P <= 0.02\nmse = 0.0\nsamples = 2\nvalue = 0.05", fillcolor="#e581390b"] ;
785 -> 786 ;
787 [label="mse = 0.0\nsamples = 1\nvalue = 0.05", fillcolor="#e581390c"] ;
786 -> 787 ;
788 [label="mse = 0.0\nsamples = 1\nvalue = 0.04", fillcolor="#e581390b"] ;
786 -> 788 ;
789 [label="mse = 0.0\nsamples = 3\nvalue = 0.05", fillcolor="#e581390c"] ;
785 -> 789 ;
790 [label="mse = 0.0\nsamples = 1\nvalue = 0.04", fillcolor="#e581390b"] ;
782 -> 790 ;
791 [label="AVG_WHP_P <= 0.06\nmse = 0.0\nsamples = 52\nvalue = 0.04", fillcolor="#e581390a"] ;
781 -> 791 ;
792 [label="AVG_WHP_P <= 0.06\nmse = 0.0\nsamples = 49\nvalue = 0.04", fillcolor="#e581390a"] ;
791 -> 792 ;
793 [label="DP_CHOKE_SIZE <= 0.01\nmse = 0.0\nsamples = 48\nvalue = 0.04", fillcolor="#e581390a"] ;
792 -> 793 ;
794 [label="AVG_CHOKE_SIZE_P <= 0.99\nmse = 0.0\nsamples = 15\nvalue = 0.04", fillcolor="#e581390b"] ;
793 -> 794 ;
795 [label="AVG_WHP_P <= 0.04\nmse = 0.0\nsamples = 4\nvalue = 0.04", fillcolor="#e581390b"] ;
794 -> 795 ;
796 [label="DP_CHOKE_SIZE <= 0.01\nmse = 0.0\nsamples = 3\nvalue = 0.04", fillcolor="#e581390b"] ;
795 -> 796 ;
797 [label="mse = 0.0\nsamples = 1\nvalue = 0.04", fillcolor="#e581390b"] ;
796 -> 797 ;
798 [label="mse = 0.0\nsamples = 2\nvalue = 0.04", fillcolor="#e581390b"] ;
796 -> 798 ;
799 [label="mse = -0.0\nsamples = 1\nvalue = 0.04", fillcolor="#e581390a"] ;
795 -> 799 ;
800 [label="AVG_DOWNHOLE_TEMPERATURE <= 0.87\nmse = 0.0\nsamples = 11\nvalue = 0.04", fillcolor="#e581390b"] ;
794 -> 800 ;
801 [label="AVG_DOWNHOLE_PRESSURE <= 0.86\nmse = 0.0\nsamples = 10\nvalue = 0.04", fillcolor="#e581390b"] ;
800 -> 801 ;
802 [label="mse = 0.0\nsamples = 8\nvalue = 0.04", fillcolor="#e581390b"] ;
801 -> 802 ;
803 [label="mse = 0.0\nsamples = 2\nvalue = 0.04", fillcolor="#e581390b"] ;
801 -> 803 ;
804 [label="mse = 0.0\nsamples = 1\nvalue = 0.04", fillcolor="#e581390a"] ;
800 -> 804 ;
805 [label="AVG_WHP_P <= 0.05\nmse = 0.0\nsamples = 33\nvalue = 0.04", fillcolor="#e581390a"] ;
793 -> 805 ;
806 [label="DP_CHOKE_SIZE <= 0.01\nmse = 0.0\nsamples = 26\nvalue = 0.04", fillcolor="#e581390a"] ;
805 -> 806 ;
807 [label="AVG_DOWNHOLE_TEMPERATURE <= 0.86\nmse = 0.0\nsamples = 24\nvalue = 0.04", fillcolor="#e581390a"] ;
806 -> 807 ;
808 [label="AVG_DOWNHOLE_TEMPERATURE <= 0.86\nmse = 0.0\nsamples = 10\nvalue = 0.04", fillcolor="#e581390a"] ;
807 -> 808 ;
809 [label="AVG_DP_TUBING <= 0.93\nmse = 0.0\nsamples = 9\nvalue = 0.04", fillcolor="#e581390a"] ;
808 -> 809 ;
810 [label="mse = 0.0\nsamples = 1\nvalue = 0.04", fillcolor="#e581390b"] ;
809 -> 810 ;
811 [label="AVG_CHOKE_SIZE_P <= 0.99\nmse = 0.0\nsamples = 8\nvalue = 0.04", fillcolor="#e581390a"] ;
809 -> 811 ;
812 [label="mse = 0.0\nsamples = 2\nvalue = 0.04", fillcolor="#e581390a"] ;
811 -> 812 ;
813 [label="AVG_DOWNHOLE_TEMPERATURE <= 0.86\nmse = 0.0\nsamples = 6\nvalue = 0.04", fillcolor="#e581390a"] ;
811 -> 813 ;
814 [label="mse = 0.0\nsamples = 1\nvalue = 0.04", fillcolor="#e581390a"] ;
813 -> 814 ;
815 [label="mse = 0.0\nsamples = 5\nvalue = 0.04", fillcolor="#e581390a"] ;
813 -> 815 ;
816 [label="mse = 0.0\nsamples = 1\nvalue = 0.04", fillcolor="#e581390b"] ;
808 -> 816 ;
817 [label="AVG_DOWNHOLE_PRESSURE <= 0.86\nmse = 0.0\nsamples = 14\nvalue = 0.04", fillcolor="#e581390a"] ;
807 -> 817 ;
818 [label="mse = 0.0\nsamples = 1\nvalue = 0.04", fillcolor="#e581390b"] ;
817 -> 818 ;
819 [label="AVG_DOWNHOLE_TEMPERATURE <= 0.86\nmse = 0.0\nsamples = 13\nvalue = 0.04", fillcolor="#e581390a"] ;
817 -> 819 ;
820 [label="DP_CHOKE_SIZE <= 0.01\nmse = 0.0\nsamples = 5\nvalue = 0.04", fillcolor="#e581390a"] ;
819 -> 820 ;
821 [label="mse = 0.0\nsamples = 4\nvalue = 0.04", fillcolor="#e581390a"] ;
820 -> 821 ;
822 [label="mse = 0.0\nsamples = 1\nvalue = 0.04", fillcolor="#e581390a"] ;
820 -> 822 ;
823 [label="AVG_DP_TUBING <= 0.93\nmse = 0.0\nsamples = 8\nvalue = 0.04", fillcolor="#e581390a"] ;
819 -> 823 ;
824 [label="mse = 0.0\nsamples = 5\nvalue = 0.04", fillcolor="#e581390a"] ;
823 -> 824 ;
825 [label="mse = 0.0\nsamples = 3\nvalue = 0.04", fillcolor="#e581390a"] ;
823 -> 825 ;
826 [label="AVG_DP_TUBING <= 0.93\nmse = 0.0\nsamples = 2\nvalue = 0.04", fillcolor="#e581390b"] ;
806 -> 826 ;
827 [label="mse = 0.0\nsamples = 1\nvalue = 0.04", fillcolor="#e581390b"] ;
826 -> 827 ;
828 [label="mse = 0.0\nsamples = 1\nvalue = 0.04", fillcolor="#e581390b"] ;
826 -> 828 ;
829 [label="AVG_DOWNHOLE_PRESSURE <= 0.87\nmse = 0.0\nsamples = 7\nvalue = 0.04", fillcolor="#e581390a"] ;
805 -> 829 ;
830 [label="mse = 0.0\nsamples = 1\nvalue = 0.04", fillcolor="#e581390a"] ;
829 -> 830 ;
831 [label="DP_CHOKE_SIZE <= 0.01\nmse = 0.0\nsamples = 6\nvalue = 0.04", fillcolor="#e581390a"] ;
829 -> 831 ;
832 [label="DP_CHOKE_SIZE <= 0.01\nmse = 0.0\nsamples = 5\nvalue = 0.04", fillcolor="#e581390a"] ;
831 -> 832 ;
833 [label="mse = 0.0\nsamples = 1\nvalue = 0.04", fillcolor="#e5813909"] ;
832 -> 833 ;
834 [label="AVG_DOWNHOLE_PRESSURE <= 0.87\nmse = 0.0\nsamples = 4\nvalue = 0.04", fillcolor="#e581390a"] ;
832 -> 834 ;
835 [label="mse = 0.0\nsamples = 1\nvalue = 0.04", fillcolor="#e581390a"] ;
834 -> 835 ;
836 [label="mse = 0.0\nsamples = 3\nvalue = 0.04", fillcolor="#e581390a"] ;
834 -> 836 ;
837 [label="mse = -0.0\nsamples = 1\nvalue = 0.04", fillcolor="#e581390a"] ;
831 -> 837 ;
838 [label="mse = 0.0\nsamples = 1\nvalue = 0.05", fillcolor="#e581390d"] ;
792 -> 838 ;
839 [label="AVG_DOWNHOLE_TEMPERATURE <= 0.86\nmse = 0.0\nsamples = 3\nvalue = 0.03", fillcolor="#e5813909"] ;
791 -> 839 ;
840 [label="mse = 0.0\nsamples = 1\nvalue = 0.03", fillcolor="#e5813908"] ;
839 -> 840 ;
841 [label="DP_CHOKE_SIZE <= 0.03\nmse = 0.0\nsamples = 2\nvalue = 0.04", fillcolor="#e5813909"] ;
839 -> 841 ;
842 [label="mse = 0.0\nsamples = 1\nvalue = 0.04", fillcolor="#e5813909"] ;
841 -> 842 ;
843 [label="mse = 0.0\nsamples = 1\nvalue = 0.03", fillcolor="#e5813909"] ;
841 -> 843 ;
844 [label="AVG_CHOKE_SIZE_P <= 0.75\nmse = 0.0\nsamples = 71\nvalue = 0.03", fillcolor="#e5813907"] ;
742 -> 844 ;
845 [label="AVG_DOWNHOLE_PRESSURE <= 0.94\nmse = 0.0\nsamples = 10\nvalue = 0.01", fillcolor="#e5813903"] ;
844 -> 845 ;
846 [label="AVG_CHOKE_SIZE_P <= 0.51\nmse = 0.0\nsamples = 9\nvalue = 0.01", fillcolor="#e5813903"] ;
845 -> 846 ;
847 [label="DP_CHOKE_SIZE <= 0.04\nmse = 0.0\nsamples = 6\nvalue = 0.01", fillcolor="#e5813902"] ;
846 -> 847 ;
848 [label="AVG_DP_TUBING <= 0.95\nmse = 0.0\nsamples = 2\nvalue = 0.0", fillcolor="#e5813900"] ;
847 -> 848 ;
849 [label="mse = 0.0\nsamples = 1\nvalue = 0.0", fillcolor="#e5813900"] ;
848 -> 849 ;
850 [label="mse = 0.0\nsamples = 1\nvalue = 0.0", fillcolor="#e5813901"] ;
848 -> 850 ;
851 [label="AVG_DOWNHOLE_PRESSURE <= 0.92\nmse = 0.0\nsamples = 4\nvalue = 0.01", fillcolor="#e5813902"] ;
847 -> 851 ;
852 [label="DP_CHOKE_SIZE <= 0.05\nmse = 0.0\nsamples = 3\nvalue = 0.01", fillcolor="#e5813903"] ;
851 -> 852 ;
853 [label="mse = 0.0\nsamples = 1\nvalue = 0.02", fillcolor="#e5813904"] ;
852 -> 853 ;
854 [label="mse = 0.0\nsamples = 2\nvalue = 0.01", fillcolor="#e5813902"] ;
852 -> 854 ;
855 [label="mse = -0.0\nsamples = 1\nvalue = 0.0", fillcolor="#e5813900"] ;
851 -> 855 ;
856 [label="AVG_DP_TUBING <= 0.94\nmse = 0.0\nsamples = 3\nvalue = 0.02", fillcolor="#e5813904"] ;
846 -> 856 ;
857 [label="mse = 0.0\nsamples = 1\nvalue = 0.01", fillcolor="#e5813902"] ;
856 -> 857 ;
858 [label="AVG_DOWNHOLE_TEMPERATURE <= 0.86\nmse = 0.0\nsamples = 2\nvalue = 0.02", fillcolor="#e5813906"] ;
856 -> 858 ;
859 [label="mse = 0.0\nsamples = 1\nvalue = 0.02", fillcolor="#e5813905"] ;
858 -> 859 ;
860 [label="mse = -0.0\nsamples = 1\nvalue = 0.02", fillcolor="#e5813906"] ;
858 -> 860 ;
861 [label="mse = 0.0\nsamples = 1\nvalue = 0.04", fillcolor="#e581390b"] ;
845 -> 861 ;
862 [label="AVG_DP_TUBING <= 0.94\nmse = 0.0\nsamples = 61\nvalue = 0.03", fillcolor="#e5813908"] ;
844 -> 862 ;
863 [label="AVG_DP_TUBING <= 0.94\nmse = 0.0\nsamples = 16\nvalue = 0.04", fillcolor="#e5813909"] ;
862 -> 863 ;
864 [label="DP_CHOKE_SIZE <= 0.01\nmse = 0.0\nsamples = 3\nvalue = 0.03", fillcolor="#e5813908"] ;
863 -> 864 ;
865 [label="mse = 0.0\nsamples = 1\nvalue = 0.03", fillcolor="#e5813907"] ;
864 -> 865 ;
866 [label="AVG_DOWNHOLE_PRESSURE <= 0.88\nmse = 0.0\nsamples = 2\nvalue = 0.03", fillcolor="#e5813908"] ;
864 -> 866 ;
867 [label="mse = 0.0\nsamples = 1\nvalue = 0.03", fillcolor="#e5813908"] ;
866 -> 867 ;
868 [label="mse = 0.0\nsamples = 1\nvalue = 0.03", fillcolor="#e5813908"] ;
866 -> 868 ;
869 [label="AVG_WHP_P <= 0.05\nmse = 0.0\nsamples = 13\nvalue = 0.04", fillcolor="#e5813909"] ;
863 -> 869 ;
870 [label="AVG_DP_TUBING <= 0.94\nmse = 0.0\nsamples = 9\nvalue = 0.04", fillcolor="#e5813909"] ;
869 -> 870 ;
871 [label="DP_CHOKE_SIZE <= 0.01\nmse = 0.0\nsamples = 2\nvalue = 0.03", fillcolor="#e5813909"] ;
870 -> 871 ;
872 [label="mse = 0.0\nsamples = 1\nvalue = 0.04", fillcolor="#e5813909"] ;
871 -> 872 ;
873 [label="mse = 0.0\nsamples = 1\nvalue = 0.03", fillcolor="#e5813908"] ;
871 -> 873 ;
874 [label="DP_CHOKE_SIZE <= 0.01\nmse = 0.0\nsamples = 7\nvalue = 0.04", fillcolor="#e5813909"] ;
870 -> 874 ;
875 [label="DP_CHOKE_SIZE <= 0.01\nmse = 0.0\nsamples = 5\nvalue = 0.04", fillcolor="#e581390a"] ;
874 -> 875 ;
876 [label="mse = 0.0\nsamples = 3\nvalue = 0.04", fillcolor="#e5813909"] ;
875 -> 876 ;
877 [label="mse = 0.0\nsamples = 2\nvalue = 0.04", fillcolor="#e581390a"] ;
875 -> 877 ;
878 [label="AVG_DP_TUBING <= 0.94\nmse = 0.0\nsamples = 2\nvalue = 0.04", fillcolor="#e5813909"] ;
874 -> 878 ;
879 [label="mse = 0.0\nsamples = 1\nvalue = 0.04", fillcolor="#e5813909"] ;
878 -> 879 ;
880 [label="mse = 0.0\nsamples = 1\nvalue = 0.04", fillcolor="#e5813909"] ;
878 -> 880 ;
881 [label="DP_CHOKE_SIZE <= 0.01\nmse = 0.0\nsamples = 4\nvalue = 0.03", fillcolor="#e5813909"] ;
869 -> 881 ;
882 [label="mse = 0.0\nsamples = 1\nvalue = 0.03", fillcolor="#e5813908"] ;
881 -> 882 ;
883 [label="mse = 0.0\nsamples = 3\nvalue = 0.03", fillcolor="#e5813909"] ;
881 -> 883 ;
884 [label="AVG_WHP_P <= 0.04\nmse = 0.0\nsamples = 45\nvalue = 0.03", fillcolor="#e5813907"] ;
862 -> 884 ;
885 [label="DP_CHOKE_SIZE <= 0.01\nmse = 0.0\nsamples = 28\nvalue = 0.03", fillcolor="#e5813907"] ;
884 -> 885 ;
886 [label="DP_CHOKE_SIZE <= 0.01\nmse = 0.0\nsamples = 12\nvalue = 0.03", fillcolor="#e5813907"] ;
885 -> 886 ;
887 [label="AVG_DOWNHOLE_TEMPERATURE <= 0.86\nmse = 0.0\nsamples = 11\nvalue = 0.03", fillcolor="#e5813907"] ;
886 -> 887 ;
888 [label="mse = 0.0\nsamples = 9\nvalue = 0.03", fillcolor="#e5813907"] ;
887 -> 888 ;
889 [label="AVG_DP_TUBING <= 0.96\nmse = 0.0\nsamples = 2\nvalue = 0.03", fillcolor="#e5813907"] ;
887 -> 889 ;
890 [label="mse = 0.0\nsamples = 1\nvalue = 0.03", fillcolor="#e5813907"] ;
889 -> 890 ;
891 [label="mse = 0.0\nsamples = 1\nvalue = 0.03", fillcolor="#e5813907"] ;
889 -> 891 ;
892 [label="mse = -0.0\nsamples = 1\nvalue = 0.02", fillcolor="#e5813906"] ;
886 -> 892 ;
893 [label="AVG_DP_TUBING <= 0.96\nmse = 0.0\nsamples = 16\nvalue = 0.03", fillcolor="#e5813907"] ;
885 -> 893 ;
894 [label="AVG_DOWNHOLE_TEMPERATURE <= 0.86\nmse = 0.0\nsamples = 12\nvalue = 0.03", fillcolor="#e5813907"] ;
893 -> 894 ;
895 [label="AVG_DP_TUBING <= 0.95\nmse = 0.0\nsamples = 2\nvalue = 0.03", fillcolor="#e5813908"] ;
894 -> 895 ;
896 [label="mse = 0.0\nsamples = 1\nvalue = 0.03", fillcolor="#e5813908"] ;
895 -> 896 ;
897 [label="mse = 0.0\nsamples = 1\nvalue = 0.03", fillcolor="#e5813908"] ;
895 -> 897 ;
898 [label="AVG_DOWNHOLE_TEMPERATURE <= 0.86\nmse = 0.0\nsamples = 10\nvalue = 0.03", fillcolor="#e5813907"] ;
894 -> 898 ;
899 [label="AVG_DP_TUBING <= 0.96\nmse = 0.0\nsamples = 6\nvalue = 0.03", fillcolor="#e5813907"] ;
898 -> 899 ;
900 [label="mse = 0.0\nsamples = 3\nvalue = 0.03", fillcolor="#e5813907"] ;
899 -> 900 ;
901 [label="mse = 0.0\nsamples = 3\nvalue = 0.03", fillcolor="#e5813907"] ;
899 -> 901 ;
902 [label="mse = 0.0\nsamples = 4\nvalue = 0.03", fillcolor="#e5813907"] ;
898 -> 902 ;
903 [label="AVG_DP_TUBING <= 0.96\nmse = 0.0\nsamples = 4\nvalue = 0.03", fillcolor="#e5813907"] ;
893 -> 903 ;
904 [label="mse = 0.0\nsamples = 2\nvalue = 0.03", fillcolor="#e5813907"] ;
903 -> 904 ;
905 [label="mse = 0.0\nsamples = 2\nvalue = 0.03", fillcolor="#e5813907"] ;
903 -> 905 ;
906 [label="AVG_DP_TUBING <= 0.96\nmse = 0.0\nsamples = 17\nvalue = 0.03", fillcolor="#e5813908"] ;
884 -> 906 ;
907 [label="AVG_DOWNHOLE_TEMPERATURE <= 0.86\nmse = 0.0\nsamples = 16\nvalue = 0.03", fillcolor="#e5813908"] ;
906 -> 907 ;
908 [label="AVG_DP_TUBING <= 0.95\nmse = 0.0\nsamples = 10\nvalue = 0.03", fillcolor="#e5813908"] ;
907 -> 908 ;
909 [label="mse = 0.0\nsamples = 1\nvalue = 0.03", fillcolor="#e5813907"] ;
908 -> 909 ;
910 [label="mse = 0.0\nsamples = 9\nvalue = 0.03", fillcolor="#e5813908"] ;
908 -> 910 ;
911 [label="AVG_DOWNHOLE_PRESSURE <= 0.88\nmse = 0.0\nsamples = 6\nvalue = 0.03", fillcolor="#e5813908"] ;
907 -> 911 ;
912 [label="mse = 0.0\nsamples = 4\nvalue = 0.03", fillcolor="#e5813908"] ;
911 -> 912 ;
913 [label="mse = 0.0\nsamples = 2\nvalue = 0.03", fillcolor="#e5813908"] ;
911 -> 913 ;
914 [label="mse = -0.0\nsamples = 1\nvalue = 0.03", fillcolor="#e5813907"] ;
906 -> 914 ;
915 [label="AVG_DP_TUBING <= 0.99\nmse = 0.0\nsamples = 305\nvalue = 0.01", fillcolor="#e5813903"] ;
741 -> 915 ;
916 [label="AVG_DOWNHOLE_TEMPERATURE <= 0.86\nmse = 0.0\nsamples = 180\nvalue = 0.02", fillcolor="#e5813904"] ;
915 -> 916 ;
917 [label="AVG_DP_TUBING <= 0.98\nmse = 0.0\nsamples = 156\nvalue = 0.02", fillcolor="#e5813904"] ;
916 -> 917 ;
918 [label="AVG_DOWNHOLE_TEMPERATURE <= 0.86\nmse = 0.0\nsamples = 116\nvalue = 0.02", fillcolor="#e5813904"] ;
917 -> 918 ;
919 [label="AVG_CHOKE_SIZE_P <= 0.92\nmse = 0.0\nsamples = 76\nvalue = 0.02", fillcolor="#e5813904"] ;
918 -> 919 ;
920 [label="AVG_DP_TUBING <= 0.98\nmse = 0.0\nsamples = 3\nvalue = 0.01", fillcolor="#e5813903"] ;
919 -> 920 ;
921 [label="mse = 0.0\nsamples = 1\nvalue = 0.01", fillcolor="#e5813903"] ;
920 -> 921 ;
922 [label="AVG_DOWNHOLE_PRESSURE <= 0.9\nmse = 0.0\nsamples = 2\nvalue = 0.01", fillcolor="#e5813902"] ;
920 -> 922 ;
923 [label="mse = 0.0\nsamples = 1\nvalue = 0.01", fillcolor="#e5813902"] ;
922 -> 923 ;
924 [label="mse = 0.0\nsamples = 1\nvalue = 0.01", fillcolor="#e5813902"] ;
922 -> 924 ;
925 [label="DP_CHOKE_SIZE <= 0.0\nmse = 0.0\nsamples = 73\nvalue = 0.02", fillcolor="#e5813904"] ;
919 -> 925 ;
926 [label="AVG_WHP_P <= 0.04\nmse = 0.0\nsamples = 49\nvalue = 0.02", fillcolor="#e5813904"] ;
925 -> 926 ;
927 [label="AVG_DP_TUBING <= 0.97\nmse = 0.0\nsamples = 41\nvalue = 0.02", fillcolor="#e5813904"] ;
926 -> 927 ;
928 [label="mse = 0.0\nsamples = 1\nvalue = 0.02", fillcolor="#e5813905"] ;
927 -> 928 ;
929 [label="AVG_WHP_P <= 0.03\nmse = 0.0\nsamples = 40\nvalue = 0.02", fillcolor="#e5813904"] ;
927 -> 929 ;
930 [label="AVG_DOWNHOLE_TEMPERATURE <= 0.86\nmse = 0.0\nsamples = 29\nvalue = 0.02", fillcolor="#e5813904"] ;
929 -> 930 ;
931 [label="AVG_DOWNHOLE_PRESSURE <= 0.9\nmse = 0.0\nsamples = 16\nvalue = 0.01", fillcolor="#e5813904"] ;
930 -> 931 ;
932 [label="AVG_DP_TUBING <= 0.97\nmse = 0.0\nsamples = 13\nvalue = 0.01", fillcolor="#e5813904"] ;
931 -> 932 ;
933 [label="AVG_DP_TUBING <= 0.97\nmse = 0.0\nsamples = 12\nvalue = 0.01", fillcolor="#e5813904"] ;
932 -> 933 ;
934 [label="AVG_DOWNHOLE_PRESSURE <= 0.88\nmse = 0.0\nsamples = 8\nvalue = 0.01", fillcolor="#e5813904"] ;
933 -> 934 ;
935 [label="AVG_DOWNHOLE_TEMPERATURE <= 0.86\nmse = 0.0\nsamples = 4\nvalue = 0.02", fillcolor="#e5813904"] ;
934 -> 935 ;
936 [label="mse = 0.0\nsamples = 1\nvalue = 0.02", fillcolor="#e5813904"] ;
935 -> 936 ;
937 [label="mse = 0.0\nsamples = 3\nvalue = 0.01", fillcolor="#e5813904"] ;
935 -> 937 ;
938 [label="AVG_DOWNHOLE_PRESSURE <= 0.89\nmse = 0.0\nsamples = 4\nvalue = 0.01", fillcolor="#e5813903"] ;
934 -> 938 ;
939 [label="mse = 0.0\nsamples = 3\nvalue = 0.01", fillcolor="#e5813904"] ;
938 -> 939 ;
940 [label="mse = -0.0\nsamples = 1\nvalue = 0.01", fillcolor="#e5813903"] ;
938 -> 940 ;
941 [label="AVG_DOWNHOLE_PRESSURE <= 0.89\nmse = 0.0\nsamples = 4\nvalue = 0.02", fillcolor="#e5813904"] ;
933 -> 941 ;
942 [label="mse = 0.0\nsamples = 2\nvalue = 0.02", fillcolor="#e5813904"] ;
941 -> 942 ;
943 [label="mse = 0.0\nsamples = 2\nvalue = 0.01", fillcolor="#e5813904"] ;
941 -> 943 ;
944 [label="mse = -0.0\nsamples = 1\nvalue = 0.01", fillcolor="#e5813903"] ;
932 -> 944 ;
945 [label="mse = 0.0\nsamples = 3\nvalue = 0.02", fillcolor="#e5813904"] ;
931 -> 945 ;
946 [label="DP_CHOKE_SIZE <= 0.0\nmse = 0.0\nsamples = 13\nvalue = 0.02", fillcolor="#e5813904"] ;
930 -> 946 ;
947 [label="mse = 0.0\nsamples = 4\nvalue = 0.02", fillcolor="#e5813904"] ;
946 -> 947 ;
948 [label="AVG_DOWNHOLE_TEMPERATURE <= 0.86\nmse = 0.0\nsamples = 9\nvalue = 0.02", fillcolor="#e5813904"] ;
946 -> 948 ;
949 [label="mse = 0.0\nsamples = 6\nvalue = 0.02", fillcolor="#e5813904"] ;
948 -> 949 ;
950 [label="mse = 0.0\nsamples = 3\nvalue = 0.02", fillcolor="#e5813904"] ;
948 -> 950 ;
951 [label="AVG_DOWNHOLE_PRESSURE <= 0.9\nmse = 0.0\nsamples = 11\nvalue = 0.02", fillcolor="#e5813904"] ;
929 -> 951 ;
952 [label="mse = 0.0\nsamples = 2\nvalue = 0.02", fillcolor="#e5813904"] ;
951 -> 952 ;
953 [label="DP_CHOKE_SIZE <= 0.0\nmse = 0.0\nsamples = 9\nvalue = 0.02", fillcolor="#e5813904"] ;
951 -> 953 ;
954 [label="mse = 0.0\nsamples = 1\nvalue = 0.02", fillcolor="#e5813904"] ;
953 -> 954 ;
955 [label="mse = 0.0\nsamples = 8\nvalue = 0.02", fillcolor="#e5813904"] ;
953 -> 955 ;
956 [label="AVG_DP_TUBING <= 0.97\nmse = 0.0\nsamples = 8\nvalue = 0.01", fillcolor="#e5813903"] ;
926 -> 956 ;
957 [label="AVG_DP_TUBING <= 0.97\nmse = 0.0\nsamples = 2\nvalue = 0.02", fillcolor="#e5813904"] ;
956 -> 957 ;
958 [label="mse = 0.0\nsamples = 1\nvalue = 0.02", fillcolor="#e5813904"] ;
957 -> 958 ;
959 [label="mse = 0.0\nsamples = 1\nvalue = 0.02", fillcolor="#e5813904"] ;
957 -> 959 ;
960 [label="mse = 0.0\nsamples = 6\nvalue = 0.01", fillcolor="#e5813903"] ;
956 -> 960 ;
961 [label="AVG_DOWNHOLE_TEMPERATURE <= 0.86\nmse = 0.0\nsamples = 24\nvalue = 0.02", fillcolor="#e5813904"] ;
925 -> 961 ;
962 [label="AVG_DOWNHOLE_PRESSURE <= 0.9\nmse = 0.0\nsamples = 7\nvalue = 0.02", fillcolor="#e5813904"] ;
961 -> 962 ;
963 [label="mse = 0.0\nsamples = 5\nvalue = 0.02", fillcolor="#e5813904"] ;
962 -> 963 ;
964 [label="mse = 0.0\nsamples = 2\nvalue = 0.02", fillcolor="#e5813904"] ;
962 -> 964 ;
965 [label="AVG_DOWNHOLE_TEMPERATURE <= 0.86\nmse = 0.0\nsamples = 17\nvalue = 0.02", fillcolor="#e5813905"] ;
961 -> 965 ;
966 [label="AVG_DOWNHOLE_TEMPERATURE <= 0.86\nmse = 0.0\nsamples = 11\nvalue = 0.02", fillcolor="#e5813904"] ;
965 -> 966 ;
967 [label="mse = 0.0\nsamples = 8\nvalue = 0.02", fillcolor="#e5813904"] ;
966 -> 967 ;
968 [label="mse = 0.0\nsamples = 3\nvalue = 0.02", fillcolor="#e5813905"] ;
966 -> 968 ;
969 [label="AVG_DP_TUBING <= 0.98\nmse = 0.0\nsamples = 6\nvalue = 0.02", fillcolor="#e5813905"] ;
965 -> 969 ;
970 [label="mse = 0.0\nsamples = 5\nvalue = 0.02", fillcolor="#e5813905"] ;
969 -> 970 ;
971 [label="mse = 0.0\nsamples = 1\nvalue = 0.02", fillcolor="#e5813904"] ;
969 -> 971 ;
972 [label="AVG_DOWNHOLE_PRESSURE <= 0.9\nmse = 0.0\nsamples = 40\nvalue = 0.02", fillcolor="#e5813905"] ;
918 -> 972 ;
973 [label="DP_CHOKE_SIZE <= 0.01\nmse = 0.0\nsamples = 12\nvalue = 0.02", fillcolor="#e5813905"] ;
972 -> 973 ;
974 [label="AVG_WHP_P <= 0.04\nmse = 0.0\nsamples = 10\nvalue = 0.02", fillcolor="#e5813905"] ;
973 -> 974 ;
975 [label="AVG_CHOKE_SIZE_P <= 0.99\nmse = 0.0\nsamples = 9\nvalue = 0.02", fillcolor="#e5813905"] ;
974 -> 975 ;
976 [label="DP_CHOKE_SIZE <= 0.0\nmse = 0.0\nsamples = 2\nvalue = 0.02", fillcolor="#e5813905"] ;
975 -> 976 ;
977 [label="mse = 0.0\nsamples = 1\nvalue = 0.02", fillcolor="#e5813905"] ;
